{"type": "MLP", "input_size": 73, "num_classes": 5, "layers": [{"type": "linear", "in": 73, "out": 128}, {"type": "batchnorm", "size": 128}, {"type": "relu"}, {"type": "linear", "in": 128, "out": 64}, {"type": "batchnorm", "size": 64}, {"type": "relu"}, {"type": "linear", "in": 64, "out": 32}, {"type": "relu"}, {"type": "linear", "in": 32, "out": 5}], "weights": {"network.0.weight": [[0.08948246389627457, 0.09714507311582565, -0.027419522404670715, 0.07771878689527512, -0.07605523616075516, -0.001510706963017583, -0.07209353893995285, 0.05994243547320366, 0.04843851551413536, -0.09245865046977997, 0.1358654946088791, 0.015678277239203453, 0.08177933096885681, 0.073759526014328, 0.053063251078128815, 0.0014327345415949821, 0.02898595668375492, -0.001378817716613412, -0.08348280191421509, 0.04006683826446533, -0.05034561827778816, -0.013212832622230053, -0.03641172870993614, 0.03698498383164406, -0.09960456192493439, -0.042413074523210526, -0.04786766320466995, -0.09447566419839859, -0.04145786911249161, -0.14591702818870544, 0.09502382576465607, -0.1291341632604599, 0.06235042214393616, 0.02939153090119362, -0.04033825546503067, 0.04167495667934418, 0.006050108000636101, 0.04601903632283211, 0.014362571761012077, -0.014774724841117859, -0.027518296614289284, -0.06592750549316406, 0.06827772408723831, 0.06341321021318436, 0.041086480021476746, -0.04709668457508087, 0.049476176500320435, -0.005044794641435146, 0.0664360299706459, -0.09233707934617996, -0.1030229851603508, -0.015543323941528797, -0.12528520822525024, 0.07188919931650162, 0.029334863647818565, 0.0059798117727041245, 0.0055782124400138855, 0.03131122514605522, 0.0627196803689003, -0.08295419812202454, 0.017367171123623848, -0.13233132660388947, 0.021359706297516823, -0.07635904103517532, 0.06482253223657608, -0.013040371239185333, 0.09994775801897049, -0.08544974029064178, -0.09403596818447113, -0.12288817763328552, 0.11736268550157547, 0.041798174381256104, 0.12132151424884796], [-0.0965912789106369, -0.1160903200507164, -0.09156875312328339, -0.06419402360916138, 0.03153204917907715, 0.021894099190831184, 0.13729141652584076, -0.06241587549448013, -0.07052559405565262, 0.11808019876480103, -0.030243365094065666, 0.08527356386184692, 0.021720867604017258, 0.06152098625898361, -0.10654305666685104, -0.011873816139996052, 0.04086438938975334, -0.0074082245118916035, 0.009876338765025139, 0.07605185359716415, 0.07326781004667282, -0.06743627786636353, -0.0439809188246727, 0.09660477191209793, -0.02531171590089798, -0.02168428711593151, -0.12034394592046738, -0.060916513204574585, 0.041074592620134354, -0.04572102800011635, -0.04206492751836777, 0.03914063796401024, -0.107660673558712, -0.11296508461236954, -0.0051008714362978935, -0.09670769423246384, -0.060185711830854416, 0.15726317465305328, -0.00046270363964140415, 0.05741298943758011, -0.11087467521429062, -0.08502685278654099, -0.04102809727191925, 0.03718051314353943, -0.12104316800832748, -0.016654465347528458, -0.03570307418704033, -0.019483286887407303, -0.05730476230382919, 0.017439894378185272, -0.10059776902198792, -0.08297228813171387, -0.04368099197745323, -0.010427608154714108, -0.11214122176170349, 0.11656511574983597, -0.01630440540611744, 0.12663352489471436, 0.056830599904060364, -0.10039112716913223, 0.04097071662545204, -0.012654826045036316, -0.053818803280591965, -0.07264777272939682, -0.12014754116535187, 0.027946755290031433, -0.025688080117106438, 0.09373146295547485, -0.07305263727903366, 0.10785168409347534, -0.04161010682582855, 0.012997675687074661, 0.03873530030250549], [0.060422711074352264, 0.09448852390050888, 0.10661972314119339, -0.04745900630950928, 0.05419875681400299, -0.0423593707382679, -0.005929612088948488, -0.10728222876787186, 0.09601054340600967, -0.08020349591970444, 0.046711016446352005, 0.03743162751197815, 0.02992160990834236, -0.10047796368598938, 0.053548820316791534, 0.054208338260650635, 0.01707918755710125, -0.10495880991220474, 0.06577291339635849, 0.012099595740437508, -0.07300101965665817, 0.12016694247722626, 0.012305538170039654, -0.05360810086131096, -0.049293696880340576, -0.04317667335271835, 0.08195295184850693, -0.0315646231174469, -0.0003151514392811805, -0.026768933981657028, -0.06833735853433609, 0.04250285401940346, 0.08258577436208725, -0.07860616594552994, 0.013284659944474697, 0.08172530680894852, 0.0295175202190876, -0.09859176725149155, 0.018932057544589043, 0.06911889463663101, 0.09229393303394318, 0.010221477597951889, -0.020068896934390068, 0.028993966057896614, -0.024910498410463333, -0.02287907898426056, 0.046489618718624115, 0.09786242991685867, -0.022793099284172058, -0.09766028821468353, -0.009706093929708004, -0.012222248129546642, 0.07020047307014465, 0.009605588391423225, -0.09885557740926743, -0.04233037307858467, 0.10793392360210419, 0.046589162200689316, 0.01712889038026333, -0.0758480429649353, -0.06049873307347298, -0.15555381774902344, -0.03604729846119881, 0.004805624485015869, 0.08716049045324326, 0.07553061842918396, -0.1182221844792366, -0.07366123795509338, -0.05865158513188362, 0.06478993594646454, 0.03105766326189041, -0.010413235984742641, 0.038162048906087875], [-0.04457881301641464, -0.0757555440068245, 0.08542684465646744, -0.038518209010362625, -0.013447867706418037, -0.08193203061819077, 0.0872536450624466, 0.11553388088941574, 0.06209588423371315, -0.04404160752892494, -0.07192376255989075, -0.07297537475824356, 0.1089051216840744, 0.12055442482233047, 0.13411855697631836, 0.05207454040646553, -0.0009487828356213868, 0.02621893770992756, -0.07786966860294342, -0.1583574414253235, -0.05013894662261009, 0.057375483214855194, -0.10898403823375702, 0.0015581190818920732, -0.050248995423316956, -0.05481959879398346, -0.05791549012064934, -0.06523621082305908, 0.006682016421109438, 0.004444855265319347, 0.07677952200174332, -0.024770449846982956, -0.058020804077386856, 0.0012148638488724828, -0.029619907960295677, -0.020075200125575066, -0.09721491485834122, 0.08625852316617966, -0.04152943938970566, 0.07733844965696335, -0.0021662642247974873, 0.0667014792561531, -0.04334539920091629, 0.07839176058769226, -0.003310728818178177, 0.04173168167471886, 0.11135459691286087, -0.030210023745894432, -0.001090981182642281, 0.005612509790807962, -0.045158930122852325, 0.06504824012517929, -0.15038327872753143, 0.057836197316646576, 0.06612593680620193, 0.1217871606349945, -0.0027953770477324724, -0.0513891875743866, 0.029810549691319466, 0.09836805611848831, -0.10434902459383011, 0.02087952196598053, -0.0167694091796875, 0.04628238081932068, -0.060211408883333206, -0.02428746595978737, -0.04557010903954506, -0.06365198642015457, 0.1206306591629982, 0.15786577761173248, -0.08884640038013458, -0.047533344477415085, -0.08727867156267166], [-0.10569550842046738, -0.11389794200658798, 0.04349932819604874, -0.09693621844053268, -0.013778486289083958, -0.03245081007480621, -0.06651362031698227, -0.018714170902967453, 0.012205849401652813, 0.00659320829436183, -0.1005341187119484, -0.053848862648010254, -0.09859493374824524, 0.024219252169132233, 0.00028369156643748283, 0.01110831182450056, 0.00014131044736132026, 0.006418394856154919, 0.13659712672233582, 0.014155969023704529, -0.10448417067527771, -0.007680873386561871, 0.11303168535232544, 0.0474453866481781, 0.013835154473781586, 0.1463666707277298, -0.028226424008607864, 0.044986966997385025, -0.034090567380189896, 0.003904361743479967, 0.08844800293445587, 0.023165259510278702, -0.0639263167977333, -0.09483981132507324, -0.15155918896198273, -0.06749505549669266, -0.06532793492078781, 0.020170213654637337, 0.09430981427431107, 0.006517109461128712, -0.03200377896428108, -0.06783173978328705, 0.07125072926282883, -0.14575199782848358, 0.016684196889400482, 0.07521285116672516, -0.0873059630393982, 0.04876670241355896, 0.021835340186953545, 0.021818220615386963, -0.04615291953086853, -0.09284494072198868, -0.06294593214988708, -0.033242590725421906, 0.1500270664691925, -0.10293977707624435, -0.058396514505147934, -0.009786464273929596, -0.002454697620123625, 0.07226303219795227, 0.1326117366552353, 0.13070933520793915, -0.10180205851793289, -0.051171399652957916, 0.025193873792886734, -0.06116147339344025, -0.050209883600473404, 0.11232712119817734, -0.03192950785160065, -0.017633521929383278, -0.13909639418125153, 0.008371401578187943, 0.059329256415367126], [0.025908567011356354, 0.02314484864473343, -0.08876253664493561, -0.1094779372215271, -0.0702042430639267, 0.0914548709988594, 0.032386064529418945, -0.008808845654129982, -0.02978312224149704, -0.057516057044267654, 0.016406508162617683, 0.01621481031179428, 0.07309374958276749, 0.16194331645965576, -0.043082982301712036, 0.0626472681760788, -0.14327536523342133, 0.028480375185608864, 0.08607303351163864, 0.0021653790026903152, 0.10097969323396683, -0.08281224220991135, 0.009473285637795925, 0.04545034468173981, -0.06550315767526627, 0.018377767875790596, -0.025074204429984093, 0.060183942317962646, -0.036009881645441055, 0.05054973065853119, -0.07849404215812683, -0.106874980032444, 0.009948804043233395, 0.03540768846869469, -0.02865881286561489, -0.022110940888524055, 0.09118826687335968, 0.03840530291199684, 0.0071421111933887005, 0.00955913309007883, -0.19137483835220337, -0.14496439695358276, -0.04762694239616394, -0.08930762857198715, 0.010976596735417843, -0.02533307857811451, -0.05985982343554497, 0.09128250926733017, 0.060310330241918564, 0.11104229092597961, -0.040886588394641876, 0.010106696747243404, -0.0157576035708189, -0.07304243743419647, -0.035972826182842255, -0.03783508017659187, -0.051440127193927765, -0.05812840163707733, 0.054970838129520416, 0.11927966773509979, 0.04665132984519005, 0.004270532634109259, -0.08306917548179626, -0.06644608825445175, 0.02061752788722515, 0.042377106845378876, 0.01267135702073574, -0.05545586347579956, 0.09367289394140244, -0.0588839054107666, 0.08326075971126556, -0.0286247655749321, 0.04518181085586548], [-0.023129187524318695, 0.014189951121807098, -0.03536964952945709, 0.03828301653265953, -0.07537630945444107, 0.08743812888860703, 0.06656505167484283, -0.05054580792784691, -0.08216489106416702, 0.09481920301914215, 0.09107401221990585, -0.06901538372039795, -0.00756424805149436, -0.12415790557861328, -0.04960855469107628, -0.003910076804459095, -0.005074949469417334, 0.05049154534935951, -0.09042277187108994, 0.08680224418640137, 0.02850406989455223, -0.11864973604679108, 0.018004540354013443, 0.031299903988838196, -0.03791184350848198, -0.01707431487739086, 0.028894228860735893, -0.08527453243732452, -0.1397475153207779, -0.08752387017011642, 0.11733296513557434, 0.06431856006383896, 0.08940581232309341, 0.037425946444272995, 0.08692319691181183, -0.013270552270114422, -0.06954730302095413, 0.12279752641916275, -0.03991955518722534, -0.10403561592102051, -0.10169151425361633, -0.0012674011522904038, 0.03737157955765724, -0.06704504787921906, -0.05789564177393913, 0.019181104376912117, -0.0841398611664772, -0.08005794882774353, 0.05645185708999634, 0.06770589202642441, 0.11120062321424484, 0.12282892316579819, -0.0011526888702064753, 0.05645878612995148, -0.0014226734638214111, -0.01197700947523117, 0.014595864340662956, -0.014432770200073719, 0.04837137460708618, 0.10525185614824295, -0.033765699714422226, -0.0005945904995314777, -0.02240367792546749, -0.12761017680168152, -0.04946934059262276, 0.008850052952766418, 0.08210166543722153, 0.07607626914978027, -0.02303246408700943, -0.008882435038685799, -0.06137976795434952, -0.04406067728996277, 0.023598050698637962], [-0.10744043439626694, 0.03642844408750534, -0.08928743004798889, -0.05293312668800354, -0.15566889941692352, 0.08839694410562515, -0.06792810559272766, 0.010265217162668705, -0.013087373226881027, 0.023930924013257027, -0.004388515371829271, 0.0014399762731045485, 0.08558105677366257, 0.017889978364109993, -0.13073332607746124, 0.04520164430141449, 0.01270691491663456, 0.03323037549853325, 0.05416491627693176, 0.03494198992848396, -0.06242067739367485, -0.011736241169273853, 0.11333424597978592, 0.05597654730081558, 0.027290279045701027, -0.11081119626760483, 0.004620599094778299, -0.08238603919744492, 0.12042471766471863, -0.10347554832696915, 0.02009684406220913, -0.003005450824275613, -0.035225626081228256, 0.129363551735878, 0.04890645295381546, 0.044566817581653595, 0.08379760384559631, 0.11530419439077377, -0.04797818139195442, -0.03387800604104996, 0.0883607491850853, -0.0557088777422905, 0.055032361298799515, 0.0017959271790459752, -0.07578989863395691, 0.0541786253452301, 0.04178409278392792, 0.04426568001508713, 0.11065926402807236, 0.07550686597824097, 0.0964263528585434, -0.006129323039203882, -0.0816778615117073, -0.07597103714942932, -0.09660224616527557, -0.10009989887475967, -0.06899771094322205, -0.09784496575593948, -0.1325666308403015, -0.09852763265371323, -0.13457873463630676, -0.0964236855506897, 0.04548683762550354, 0.07724586129188538, -0.040216848254203796, -0.05440598353743553, 0.0651935487985611, -0.057346224784851074, -0.06529287993907928, 0.09721539914608002, -0.0672505795955658, 0.037956222891807556, 0.10850699990987778], [0.02007097750902176, 0.0318286195397377, -0.06816372275352478, -0.019576888531446457, -0.055534426122903824, 0.0261129979044199, 0.06395858526229858, 0.10999582707881927, -0.09593238681554794, 0.014822136610746384, -0.008328242227435112, -0.08548951894044876, 0.00851439218968153, -0.04623992741107941, 0.10496839880943298, 0.03288787975907326, -0.10008972883224487, 0.07178280502557755, -0.11416196823120117, -0.06577855348587036, -0.036906588822603226, -0.07395210862159729, -0.04458612576127052, -0.007001667283475399, 0.0864231288433075, 0.13071255385875702, 0.0771758183836937, -0.06630858033895493, -0.1476089209318161, 0.08658387511968613, 0.08355222642421722, -0.045509740710258484, 0.014565546065568924, -0.07378707081079483, -0.03825188800692558, 0.11011437326669693, 0.01101564522832632, 0.009026444517076015, -0.06402035057544708, -0.0209166519343853, -0.07325753569602966, -0.08986786752939224, 0.021605374291539192, 0.020481063053011894, -0.11458190530538559, 0.08663476258516312, -0.11855612695217133, -0.03995940089225769, 0.07117682695388794, 0.102419413626194, 0.0029582444112747908, 0.038707174360752106, -0.1480611115694046, -0.059118956327438354, -0.053904686123132706, -0.019382156431674957, 0.02670273929834366, -0.06184712424874306, 0.07656791806221008, 0.07484211027622223, -0.06514962017536163, -0.053930215537548065, 0.035881157964468, -0.017937056720256805, -0.007880721241235733, -0.034293148666620255, 0.12100983411073685, -0.11696665734052658, 0.08774732798337936, -0.003097696928307414, 0.02803790383040905, 0.0868263766169548, 0.051624659448862076], [-0.0666365921497345, -0.018929556012153625, 0.094926618039608, -0.0793299674987793, 0.04682239145040512, -0.10108484327793121, 0.05928339809179306, 0.031099461019039154, 0.03070605918765068, 0.022393720224499702, -0.03729622811079025, 0.056371573358774185, -0.10101544111967087, -0.08903301507234573, 0.04680289700627327, 0.08109309524297714, 0.04219924286007881, -0.053919531404972076, 0.08646098524332047, -0.07970819622278214, -0.010987737216055393, -0.1339443176984787, -0.08517979830503464, 0.07028497010469437, 0.03104373626410961, -0.09599564969539642, -0.005106005351990461, -0.010301003232598305, 0.08650609105825424, -0.11119987070560455, -0.031867899000644684, -0.12416491657495499, -0.034486908465623856, 0.04113888368010521, 0.07334522157907486, 0.03174718841910362, 0.10317553579807281, 0.048495352268218994, 0.08858871459960938, 0.09001676738262177, 0.08093348890542984, -0.0599190890789032, 0.10644575953483582, 0.06652643531560898, -0.04621778056025505, -0.06255399435758591, -0.11970948427915573, 0.06659182906150818, -0.08117587119340897, 0.06168794631958008, 0.05832850933074951, -0.11403840780258179, 0.025071484968066216, -0.0018462645821273327, 0.05329947918653488, 0.07488610595464706, -0.10570698976516724, 0.09828200936317444, 0.08772533386945724, 0.030859116464853287, -0.08728910237550735, -0.02155309170484543, -0.0037770590279251337, -0.03916528448462486, 0.012269370257854462, 0.020358094945549965, 0.05896453186869621, -0.033649228513240814, 0.03886055201292038, 0.05946978181600571, -0.1544208973646164, -0.14155767858028412, -0.12190768867731094], [0.08012024313211441, -0.1101895198225975, -0.10187657177448273, 0.10690098255872726, 0.08699606359004974, 0.05145920813083649, -0.06617849320173264, -0.08981171995401382, 0.025285447016358376, 0.08669348061084747, 0.010721725411713123, 0.00489450991153717, 0.0026117905508726835, 0.03539891168475151, -0.14041545987129211, 0.004055955912917852, 0.1143653392791748, -0.10795481503009796, 0.0011245080968365073, 0.13189035654067993, -0.0017538776155561209, 0.08201360702514648, -0.04349249601364136, -0.03821977600455284, 0.10173825174570084, -0.09163028746843338, -0.015993615612387657, 0.0749657079577446, 0.00815526768565178, 0.08756215870380402, -0.02938731759786606, -0.03792695701122284, -0.03793463855981827, -0.015478926710784435, -0.14904122054576874, 0.06672916561365128, 0.057401739060878754, -0.18848459422588348, -0.1135016456246376, 0.1310272514820099, 0.12892559170722961, 0.0378345251083374, -0.032124243676662445, -0.019303694367408752, -0.024637963622808456, -0.007513072807341814, -0.08872653543949127, -0.034943871200084686, 0.05529429018497467, -0.11166996508836746, -0.0006898435531184077, -0.03544437885284424, 0.08360399305820465, 0.01457992009818554, -0.022932274267077446, -0.08792946487665176, 0.018183285370469093, 0.01305067166686058, -0.03445819765329361, 0.08042797446250916, -0.022742319852113724, 0.013059410266578197, 0.04686812683939934, -0.14183488488197327, 0.0781140923500061, -0.06943410634994507, -0.0820147693157196, -0.07260772585868835, -0.08530604094266891, 0.03814026340842247, 0.0034396995324641466, 0.020364511758089066, -0.11879678070545197], [0.06737666577100754, -0.03637448698282242, -0.08902983367443085, 0.020087745040655136, 0.030515866354107857, 0.0953085646033287, -0.01811821572482586, -0.0725698322057724, 0.012513413093984127, 0.05796666070818901, 0.07029850780963898, 0.06429402530193329, 0.00043854297837242484, 0.0860762894153595, 0.08384925872087479, 0.007672298699617386, 0.05376502126455307, 0.049874335527420044, 0.0960979238152504, -0.10155028849840164, -0.03505410626530647, 0.005075100809335709, 0.014430868439376354, 0.07292672246694565, 2.422858642603387e-06, 0.05555948615074158, -0.05452752858400345, 0.07853056490421295, -0.025311492383480072, -0.10181879997253418, -0.04815562441945076, -0.07251055538654327, 0.04405076801776886, -0.07255525887012482, 0.02177824266254902, 0.0272768996655941, -0.07391674816608429, 0.06091870367527008, -0.11729935556650162, -0.06433477997779846, -0.16378386318683624, -0.03783038631081581, -0.04226794093847275, 0.0005089578917250037, -0.01753549464046955, 0.0862242802977562, 0.1255786269903183, 0.018876902759075165, -0.051228683441877365, -0.10855698585510254, 0.01786944270133972, -0.033969659358263016, 0.031078217551112175, 0.04224696755409241, 0.03983656316995621, 0.11722859740257263, 0.08022496849298477, 0.0799512267112732, -0.08600511401891708, 0.09753408282995224, -0.058312349021434784, -0.05279592424631119, 0.10279647260904312, 0.12503273785114288, 0.015677234157919884, 0.00033821453689597547, -0.10584159195423126, -0.010535462759435177, 0.08224977552890778, 0.038587138056755066, 0.01634438894689083, -0.019705448299646378, -0.040837302803993225], [0.06975918263196945, 0.007217757403850555, 0.07614395767450333, -0.029233863577246666, 0.023694312199950218, 0.027352791279554367, 0.016214104369282722, 0.07104124128818512, 0.04979997128248215, 0.11726228892803192, 0.10552434623241425, -0.02137710154056549, -0.08272045105695724, 0.06269390136003494, -0.00660027377307415, -0.03796767815947533, -0.0013315618271008134, 0.014357516542077065, 0.10112691670656204, 0.04861391708254814, -0.025947319343686104, -0.06245379522442818, 0.019404863938689232, -0.06662025302648544, 0.10205227136611938, 0.12325655668973923, 0.09686291962862015, 0.00938299112021923, -0.025095654651522636, 0.03273295983672142, -0.09952866286039352, 0.01779901422560215, -0.002795468084514141, -0.07124898582696915, -0.07526688277721405, 0.10026224702596664, 0.08703941851854324, 0.10188090801239014, 0.11478167027235031, -0.035731587558984756, -0.1061098575592041, 0.01526972558349371, -0.033192794770002365, -0.02222856692969799, -0.09201061725616455, 0.05596498027443886, -0.06846389174461365, -0.013939300552010536, 0.09966347366571426, 0.019680684432387352, -0.04365197569131851, 0.0652105063199997, -0.05704993009567261, -0.05169488117098808, 0.1236046701669693, -0.080007404088974, -0.0633474588394165, -0.06505432724952698, -0.04295825585722923, -0.0442497693002224, -0.05028940364718437, 0.06652345508337021, 0.026631008833646774, -0.05994214862585068, -0.09079312533140182, -0.05104180797934532, -0.0036821842659264803, -0.03658409044146538, -0.08030276745557785, 0.002341551473364234, -0.06888124346733093, -0.09274940937757492, -0.0740191861987114], [0.04885106533765793, -0.07046189904212952, -0.0483088344335556, 0.07616574317216873, 0.09010694921016693, 0.09035195410251617, -0.1472213864326477, -0.12435650080442429, -0.006241177208721638, 0.05300387367606163, -0.01088760793209076, -0.04448554664850235, -0.01972350664436817, -0.15857693552970886, -0.015555334277451038, -0.03922756761312485, 0.128961443901062, 0.04271641746163368, -0.0075235189869999886, 0.02192017063498497, -0.038572054356336594, 0.028199348598718643, 0.009964849799871445, 0.07649451494216919, -0.05273596942424774, 0.025025183334946632, -0.0025526925455778837, -0.058197032660245895, 0.10841838270425797, 0.11001954972743988, 0.09672323614358902, 0.01965678669512272, -0.007693254854530096, 0.04835112765431404, 0.06560443341732025, -0.06396946310997009, -0.016406912356615067, -0.1373298466205597, -0.0036814624909311533, 0.047065574675798416, 0.039316270500421524, 0.05507359281182289, 0.03120012767612934, -0.017250677570700645, -0.08100122958421707, 0.07197432965040207, -0.08126411586999893, 0.020167768001556396, -0.01311658974736929, -0.0639464408159256, -0.11440545320510864, 0.0005740693304687738, 0.009205351583659649, -0.020644402131438255, 0.010512844659388065, -0.05303378775715828, -0.01812729984521866, -0.0703842043876648, -0.06107746437191963, -0.017604433000087738, -0.06054200604557991, 0.001426070579327643, -0.05618152394890785, -0.05963682383298874, 0.02653355710208416, 0.014136182144284248, 0.022277357056736946, -0.1226959377527237, 0.010044707916676998, 0.027976155281066895, 0.060577038675546646, -0.12487576901912689, -0.067365363240242], [-0.10060454905033112, -0.07406497746706009, 0.0651899203658104, 0.004726744256913662, 0.02760232239961624, -0.029403550550341606, 0.012884036637842655, -0.11631175130605698, 0.06900815665721893, -0.046137940138578415, -0.04043668136000633, -0.0718834176659584, 0.0002245543582830578, 0.08901474624872208, 0.059411440044641495, -0.033082034438848495, -0.019751228392124176, -0.0004362555919215083, -0.09371484816074371, 0.09178107231855392, 0.021972781047225, 0.06929169595241547, -0.020964065566658974, -0.01592487096786499, 0.02374359220266342, -0.025764398276805878, 0.04962114617228508, -0.07482142001390457, 0.13466773927211761, -0.016796931624412537, -0.05494820326566696, -0.04459797218441963, 0.10298965126276016, -0.004465789534151554, -0.015486447140574455, 0.007081633899360895, -0.024530723690986633, -0.15667828917503357, -0.09178239107131958, 0.040941596031188965, 0.1021353155374527, 0.1518366038799286, -0.09927341341972351, 0.07713828235864639, -0.03765426576137543, 0.07824442535638809, 0.07392396777868271, 0.10305377095937729, 0.00826933141797781, 0.002141665667295456, 0.015385184437036514, 0.025926100090146065, -0.026953697204589844, 0.08479157090187073, -0.0629827007651329, 0.017258545383810997, -0.09803745150566101, 0.015674060210585594, -0.05189542844891548, -0.014937750063836575, -0.08743288367986679, -0.18584725260734558, 0.03334683179855347, 0.07564536482095718, 0.11143780499696732, 0.051730986684560776, -0.07333321869373322, -0.11589313298463821, -0.020898321643471718, 0.037771373987197876, -0.08819538354873657, 0.07323094457387924, 0.07715140283107758], [0.007089950144290924, -0.07051247358322144, 0.09595926851034164, 0.02675585076212883, 0.03704848140478134, -0.08393216133117676, 0.023753024637699127, -0.04124760627746582, 0.08633153140544891, -0.06549646705389023, 0.1350722312927246, 0.022209567949175835, 0.014606243930757046, 0.06941218674182892, 0.06919703632593155, -0.05636539310216904, -0.16622205078601837, -0.0374201163649559, 0.059930816292762756, -0.05776622146368027, 0.07358750700950623, -0.05046889930963516, 0.10079041868448257, 0.08749466389417648, 0.024781720712780952, -0.03553466498851776, -0.08748871833086014, -0.005196255631744862, -0.15885289013385773, 0.10996191203594208, -0.12732486426830292, 0.016446782276034355, 0.09915445744991302, 0.032661326229572296, 0.025034723803400993, -0.10056370496749878, 0.05041497200727463, -0.008493650704622269, -0.08095598965883255, 0.09549913555383682, -0.12242818623781204, -0.03424622863531113, 0.06045471876859665, -0.10889844596385956, -0.07813765108585358, 0.002541149500757456, -0.02415839582681656, 0.005780303850769997, -0.1107034832239151, 0.03420589491724968, -0.028022387996315956, -0.04823591932654381, -0.1578882783651352, 0.03443717956542969, -0.014429275877773762, -0.12378765642642975, 0.09047918021678925, 0.027509599924087524, 0.004348803777247667, -0.0444939024746418, 0.03039495088160038, 0.09609799087047577, 0.0666191503405571, -0.10517554730176926, 0.0933455154299736, -0.01190883293747902, 0.0786815956234932, 0.031181534752249718, 0.08662091195583344, -0.10910246521234512, 0.06847537308931351, -0.0875430554151535, -0.008817118592560291], [-0.08178409934043884, -0.025659315288066864, -0.005318664014339447, -0.007739734370261431, -0.025575457140803337, -0.045292556285858154, 0.11089712381362915, 0.04675298184156418, 0.015401647426187992, 0.040413450449705124, 0.1361861228942871, -0.03520780801773071, 0.003076755441725254, 0.10876936465501785, -0.10101669281721115, -0.06303732097148895, -0.005730408243834972, -0.051285043358802795, 0.002411443507298827, 0.04262033849954605, 0.0013881459599360824, 0.1083006039261818, -0.03415451943874359, 0.04882092401385307, 0.09520557522773743, -0.1149488314986229, -0.09520839154720306, -0.06359458714723587, -0.05289618298411369, -0.05852659046649933, -0.0013862443156540394, -0.004243471194058657, -0.02965201623737812, 0.007155056111514568, -0.033060960471630096, 0.06186874583363533, -0.05560743808746338, -0.1807994246482849, 0.014770343899726868, 0.004246670287102461, 0.08565594255924225, 0.06782962381839752, 0.07280206680297852, -0.06377934664487839, 0.04221566393971443, 0.05930078774690628, -0.016129110008478165, 0.07413242757320404, 0.07565738260746002, -0.07725750654935837, 0.037405118346214294, -0.02216952107846737, -0.05995480343699455, 0.012263345532119274, -0.00562256621196866, -0.04187602549791336, 0.006205543410032988, -0.12324677407741547, 0.10187704116106033, 0.08239194750785828, 0.01625715009868145, -0.17486879229545593, 0.015434499830007553, -0.011580929160118103, 0.07322727888822556, 0.016442889347672462, 0.04525254666805267, -0.12535205483436584, -0.08540274947881699, -0.05326654389500618, 0.006075064651668072, 0.08469479531049728, -0.07223103195428848], [-0.004262246191501617, 0.02186950296163559, -0.03108484297990799, 0.05303686484694481, -0.059662073850631714, -0.13794377446174622, -0.025267867371439934, -0.0018135772552341223, -0.023674912750720978, -0.01528371311724186, -0.044449273496866226, -0.062433965504169464, 0.015396512113511562, 0.03684728965163231, 0.08658692240715027, -0.018932608887553215, -0.011323872953653336, 0.017994998022913933, -0.11348874866962433, 0.04639851674437523, 0.06060211360454559, -0.0725543424487114, -0.018804913386702538, 0.06927891075611115, 0.08481565862894058, 0.0014389663701876998, 0.08441323786973953, -0.0236674714833498, -0.1960953176021576, 0.029580499976873398, 0.02594607137143612, -0.042908597737550735, -0.005236465483903885, -0.10830054432153702, 0.13489070534706116, 0.06976258754730225, 0.051869332790374756, 0.04952578991651535, 0.010683601722121239, -0.10158979892730713, -0.14625807106494904, -0.04628906771540642, -0.08865778148174286, -0.07894555479288101, 0.05701502412557602, 0.08720630407333374, -0.05692962929606438, -0.018432704731822014, 0.01053533237427473, 0.16516271233558655, 0.046913791447877884, 0.11316237598657608, -0.08652270585298538, 0.0592113696038723, 0.05205239728093147, -0.11796345561742783, -0.09600203484296799, 0.019163070246577263, 0.06398555636405945, -0.04108751565217972, 0.008176225237548351, 0.0020749394316226244, 0.005741977132856846, -0.06340639293193817, 0.06896818429231644, 0.05557212233543396, -0.07965352386236191, -0.010492662899196148, 0.013594475574791431, 0.040612511336803436, 0.14496652781963348, 0.05901331827044487, 0.02013009414076805], [0.10511850565671921, -0.04453800618648529, -0.0339854434132576, 0.022330228239297867, -0.1382625699043274, 0.0027210006956011057, -0.09943357855081558, 0.010402568615972996, -0.009471661411225796, 0.005872449837625027, -0.06078934296965599, -0.10847428441047668, 0.04463702812790871, 0.17080309987068176, -0.07106141000986099, 0.040334247052669525, -0.14830462634563446, 0.018216419965028763, 0.07722185552120209, 0.09165415167808533, -0.07095050066709518, 0.08909154683351517, 0.07787923514842987, -0.0003930615494027734, 0.0814175009727478, -0.03272107243537903, 0.0007752996752969921, -0.0525977648794651, -0.05049743503332138, 0.049664825201034546, -0.025272490456700325, -0.06921085715293884, -0.050058748573064804, 0.034185994416475296, -0.1101640835404396, -0.0060368487611413, -0.025803731754422188, -0.07726255059242249, 0.07065766304731369, 0.00946617778390646, 0.00803904514759779, -0.02592366747558117, -0.1247045025229454, 0.06549803912639618, 0.020722391083836555, -0.04906438663601875, -0.07505238056182861, 0.019861260429024696, -0.10876597464084625, 0.01662011817097664, 0.062070269137620926, -0.06497836858034134, -0.09660322964191437, -0.059599097818136215, 0.052945833653211594, 0.048230674117803574, 0.0021634160075336695, 0.08904272317886353, -0.040261127054691315, -0.08404973894357681, 0.030869128182530403, -0.014997747726738453, 0.12115147709846497, -0.02903267927467823, 0.09103457629680634, 0.049938589334487915, 0.05854086950421333, -0.16679714620113373, 0.08083271235227585, -0.14097395539283752, 0.09175851941108704, -0.02812241204082966, -0.12016084790229797], [0.03254830092191696, -0.023823343217372894, -0.10512558370828629, -0.048497509211301804, -0.015503023751080036, 0.09618950635194778, -0.03309554234147072, 0.05638602375984192, 0.033652108162641525, 0.014646545052528381, 0.038700830191373825, -0.05395515263080597, -0.06818825751543045, -0.03399055823683739, -0.09816896170377731, -0.053338006138801575, -0.014486716128885746, -0.05771879851818085, -0.055168237537145615, -0.05350100249052048, -0.033617645502090454, -0.0758943036198616, 0.006446138955652714, -0.019829435274004936, 0.0466771237552166, 0.008131841197609901, -0.055436182767152786, -0.038136113435029984, -0.019099796190857887, -0.07236785441637039, -0.0077655198983848095, -0.013448278419673443, 0.029394350945949554, 0.03437812626361847, 0.11436718702316284, 0.01961660385131836, -0.08995141088962555, 0.08525140583515167, -0.05901234596967697, 0.0011587738990783691, -0.06282222270965576, -0.03131343424320221, -0.04396481066942215, 0.10984919965267181, 0.06256543099880219, 0.05660548806190491, 0.1201867163181305, -0.12130678445100784, -0.0017393907764926553, 0.09413111954927444, 0.10264578461647034, -0.10110269486904144, 0.03196707367897034, -0.05274824798107147, -0.03134489059448242, -0.0486261248588562, -0.10053616762161255, -0.07520735263824463, -0.09267719835042953, 0.05331801623106003, 0.028455503284931183, -0.07249240577220917, -0.04479173570871353, 0.01731874607503414, -0.11854637414216995, 0.0633477196097374, 0.09256236255168915, 0.05762364715337753, -0.07124029099941254, 0.07277292758226395, 0.0472075380384922, 0.10862138867378235, -0.051098473370075226], [-0.10485830903053284, 0.05142209678888321, 0.00728655606508255, -0.019942982122302055, -0.11848467588424683, -0.07409025728702545, 0.09382364153862, -0.03380750119686127, 0.08858371526002884, 0.13291072845458984, 0.049852702766656876, 0.02210569754242897, 0.01876455545425415, 0.1297270506620407, -0.08850770443677902, 0.0639309361577034, -0.09225380420684814, 0.0658159926533699, -0.009104277938604355, -0.03669055923819542, 0.005862776190042496, 0.08062621206045151, -0.06541252881288528, -0.0704798549413681, -0.005369869526475668, -0.02250058390200138, 0.05639563500881195, 0.0580567829310894, -0.05603068321943283, 0.08077125251293182, -0.0406435988843441, -0.0721074789762497, -0.06757210195064545, -0.09399643540382385, -0.05134912207722664, -0.12028727680444717, -0.10010745376348495, 0.04539167881011963, 0.06613943725824356, 0.10707779228687286, 0.03380214050412178, -0.005745726637542248, 0.00996738113462925, -0.060732126235961914, 0.016037385910749435, -0.10347332805395126, 0.08517728745937347, 0.002456388669088483, 0.009037507697939873, 0.06269324570894241, -0.07717623561620712, 0.10730282217264175, 0.03364480286836624, 0.06112394481897354, -0.008956898003816605, 0.05063868686556816, 0.07497695088386536, 0.07023361325263977, 0.07318940758705139, 0.002888168441131711, 0.04015200585126877, 0.012628857977688313, 0.05982128903269768, 0.1418604999780655, 0.052472639828920364, -0.06823718547821045, 0.01046692207455635, 0.045116715133190155, 0.026922311633825302, -0.025460507720708847, 0.05897056311368942, 0.07842565327882767, -0.06468445062637329], [-0.009536683559417725, -0.011235222220420837, -0.07335329055786133, 0.060149043798446655, -0.06552920490503311, -0.11467164754867554, -0.002677029464393854, -0.05733412876725197, 0.07835376262664795, 0.0785672515630722, 0.09410977363586426, 0.03527967259287834, 0.07749515026807785, 0.030635587871074677, -0.033357180655002594, -0.07339350134134293, -0.051850102841854095, -0.01714746467769146, 0.031635742634534836, 0.05946601182222366, 0.017166150733828545, 0.10986527800559998, 0.00577176921069622, -0.07307013124227524, -0.06036384031176567, -0.08495986461639404, -0.09714170545339584, 0.032607756555080414, 0.08787427842617035, 0.05059252306818962, -0.010097132995724678, 0.030753444880247116, -0.07527767866849899, -0.036286626011133194, 0.08114274591207504, -0.02180447056889534, 0.016261007636785507, 0.046375028789043427, -0.007354279048740864, -0.07052943110466003, -0.029822319746017456, -0.008387369103729725, -0.008348710834980011, 0.00144680286757648, 0.018511438742280006, -0.00224678753875196, 0.03589558228850365, -0.10425250977277756, -0.014377955347299576, -0.07729670405387878, -0.0010230386396870017, -0.01957501657307148, 0.10241733491420746, -0.006364866159856319, -0.017234385013580322, 0.05979924276471138, 0.060543209314346313, -0.06874102354049683, 0.10381078720092773, 0.010850015096366405, -0.09160948544740677, 0.056144118309020996, -0.06810272485017776, 0.02345859259366989, -0.07494085282087326, -0.08467891812324524, 0.08267033100128174, -0.07402507960796356, 0.07670323550701141, -0.06301760673522949, -0.04186573624610901, 0.002874437253922224, 0.07776441425085068], [-0.04235643148422241, 0.03368765860795975, 0.01813036948442459, 0.0788433700799942, 0.01504715159535408, 0.021959256380796432, -0.06722301244735718, -0.07486416399478912, 0.10817620158195496, -0.0472320020198822, -0.04759225621819496, 0.006728933192789555, 0.13202862441539764, -0.1092413067817688, -0.07465185225009918, -0.022951647639274597, 0.06285037100315094, 0.05646286532282829, 0.12361973524093628, -0.03173527866601944, 0.07075481116771698, -0.13997212052345276, 0.06510638445615768, 0.04937714338302612, 0.06788408756256104, 0.0015417929971590638, -0.003849546890705824, 0.030415896326303482, -0.047463301569223404, -0.07145591825246811, -0.06232742220163345, -0.025397351011633873, 0.07123300433158875, 0.01962226815521717, -0.013972113840281963, 0.037987273186445236, -0.030600201338529587, 0.07146552205085754, -0.03653833642601967, -0.04192836582660675, 0.11638706177473068, -0.09923872351646423, 0.04188748076558113, -0.10310143977403641, 0.007130100391805172, -0.05783487483859062, 0.016695832833647728, -0.053121794015169144, 0.1255611777305603, -0.05201534554362297, 0.05286221206188202, -0.06356539577245712, 0.09340454638004303, -0.008747908286750317, 0.02139776572585106, -0.048739586025476456, 0.10811109840869904, 0.023593096062541008, -0.11597337573766708, -0.00609466340392828, -0.05220312625169754, 0.12461071461439133, -0.012669314630329609, -0.09155796468257904, -0.07798308879137039, 0.03163699805736542, -0.04694068431854248, 0.06212763115763664, 0.08216357231140137, 0.10041666775941849, 0.023069709539413452, -0.04760074242949486, 0.11943811923265457], [-0.036308906972408295, -0.03460155427455902, -0.012574777007102966, 0.05974012613296509, 0.07225501537322998, -0.020203696563839912, 0.035866327583789825, -0.10594461858272552, -0.017107045277953148, -0.11277367174625397, 0.04219142720103264, -0.09172823280096054, -0.027722559869289398, 0.10202231258153915, 0.14059531688690186, -0.09028039872646332, -0.11129271239042282, 0.012426245026290417, 0.04480310156941414, -0.044024933129549026, -0.04161489009857178, -0.07483705878257751, 0.032316967844963074, 0.11385194212198257, -0.08950381726026535, 0.006690643262118101, 0.06949266791343689, 0.10518478602170944, -0.07358034700155258, 0.01917002908885479, 0.10494714230298996, 0.03555308282375336, 0.1233295202255249, -0.03109920769929886, -0.002432190580293536, 0.08300991356372833, -0.07393230497837067, 0.00373529433272779, -0.01071099005639553, 0.09375908970832825, -0.0940689817070961, 0.009753049351274967, 0.07275150716304779, -0.1362263709306717, -0.100349560379982, -0.03609970584511757, 0.035755179822444916, 0.08874481171369553, -0.06038175895810127, 0.010781287215650082, -0.08018159866333008, -0.03712967038154602, 0.04440157860517502, 0.06683971732854843, -0.006824552547186613, -0.016199158504605293, 0.0471988245844841, 0.044182807207107544, -0.07837235182523727, -0.07605509459972382, 0.11693903803825378, -0.00155005999840796, 0.039055969566106796, -0.04231329634785652, 0.04673859477043152, 0.04904462769627571, 0.04606940969824791, 0.0023960277903825045, 0.09487583488225937, -0.003518561599776149, -0.013550880365073681, 0.0736389309167862, 0.10402073711156845], [-0.049417123198509216, 0.10543105751276016, 0.0431952103972435, 0.02385396510362625, 0.0578753687441349, -0.03626580536365509, 0.09881280362606049, 0.05729435384273529, -0.06422790884971619, -0.003014283487573266, -0.170292466878891, -0.012557669542729855, -0.10378234833478928, -0.08728428184986115, 0.04014592990279198, 0.13730613887310028, 0.1014980673789978, 0.0785207450389862, 0.09273898601531982, -0.02689361199736595, -0.05553920567035675, 0.036753639578819275, 0.11380375176668167, 0.017785169184207916, 0.048857152462005615, -0.13529494404792786, -0.0233371052891016, -0.04617718234658241, 0.12180524319410324, -0.014790227636694908, -0.04826154187321663, 0.03688541054725647, 0.022805187851190567, 0.01799466460943222, 0.050090812146663666, 0.08200918883085251, -0.05693374201655388, -0.1337156742811203, 0.016662411391735077, -0.10214490443468094, -0.036511071026325226, 0.09972012042999268, -0.003994148224592209, -0.006907476577907801, -0.01853814907371998, -0.0805155336856842, 0.08597183972597122, 0.007662721443921328, -0.044269807636737823, -0.15600867569446564, 0.07346075773239136, -0.022630764171481133, -0.01710234209895134, 0.02628863975405693, -0.07529042661190033, 0.025508606806397438, 0.0651686042547226, -0.07793173938989639, -0.010203304700553417, -0.09327634423971176, -0.06487780809402466, 0.022184673696756363, -0.0040067946538329124, 0.11451376229524612, 0.021068625152111053, -0.05121083930134773, -0.06787952780723572, 0.061620213091373444, -0.12423732131719589, 0.02712739259004593, 0.053420089185237885, 0.05010067671537399, 0.0737488642334938], [-0.030620642006397247, 0.07242079824209213, -0.09324932098388672, -0.03801240026950836, 0.033876337110996246, 0.03336767852306366, 0.0076149264350533485, -0.055661391466856, -0.06820876151323318, 0.0896301120519638, -0.02854599431157112, 0.0006588415126316249, 0.04264495521783829, 0.06844893097877502, -0.06448429822921753, -0.02420310117304325, 0.0710182785987854, 0.10487174987792969, -0.06319096684455872, -0.14350448548793793, 0.017261115834116936, 0.061149999499320984, 0.01264248788356781, 0.07068828493356705, -0.08068684488534927, 0.05224688723683357, -0.05486476793885231, 0.06326784938573837, 0.07720302045345306, 0.03404576703906059, 0.09174354374408722, -0.05569855123758316, -0.10732419788837433, -0.11474008113145828, 0.10391262918710709, 0.03636219725012779, -0.08608115464448929, 0.08778619766235352, 0.11319983005523682, -0.12170755863189697, 0.059639494866132736, -0.0004211672639939934, 0.0059351371601223946, 0.10723947733640671, 0.10259006172418594, 0.06817444413900375, 0.09437695145606995, 0.03528020903468132, -0.003190445713698864, -0.06696333736181259, 0.023514240980148315, -0.10163139551877975, 0.03498556837439537, 0.029333684593439102, -0.03524994105100632, -0.08091210573911667, -0.10198318213224411, 0.09380560368299484, 0.0657472088932991, 0.06714209914207458, -0.061508312821388245, -0.0039004054851830006, -0.03202301636338234, 0.11731161922216415, -0.08585771918296814, 0.04687824472784996, 0.0742611214518547, -0.06981086730957031, 0.03927581012248993, 0.0319812148809433, -0.05119943991303444, 0.08435652405023575, 0.003746515605598688], [0.10247047990560532, -0.07325652241706848, 0.05438099056482315, -0.0886600911617279, 0.007091827224940062, 0.012457350268959999, 0.09331218898296356, 0.09929990023374557, -0.09387822449207306, 0.039241522550582886, -0.10556233674287796, -0.029689982533454895, -0.11128798127174377, -0.11773718148469925, 0.022810010239481926, -0.10484045743942261, -0.059447694569826126, -0.011983037926256657, 0.08075904846191406, 0.023827899247407913, 0.04608437418937683, -0.08569619804620743, -0.05455425754189491, -0.09705735743045807, -0.04807117208838463, -0.00661077443510294, 0.04949306324124336, 0.03411008417606354, 0.14763078093528748, -0.07341846078634262, 0.10534778982400894, 0.08003650605678558, -0.11321815848350525, 0.017607705667614937, -0.1334410309791565, 0.030424021184444427, -0.04817679896950722, -0.05507215857505798, 0.059688862413167953, -0.10273078083992004, 0.2036878615617752, 0.006180225871503353, 0.13186843693256378, -0.016489900648593903, 0.04928315430879593, 0.007809984032064676, -0.025319503620266914, 0.06674642860889435, -0.03523625433444977, -0.09717614203691483, 0.10135798156261444, -0.03880536928772926, 0.039555907249450684, 0.02897311933338642, 0.01979382149875164, 0.02455834113061428, -0.05674383044242859, 0.05236459895968437, -0.06931467354297638, -0.005787467118352652, 0.09405756741762161, 0.06677431613206863, 0.0224648155272007, -0.025016942992806435, -0.026938917115330696, -0.006295403931289911, -0.051555342972278595, -0.09069962054491043, -0.05093694105744362, 0.1070973202586174, -0.020699167624115944, 0.0351887084543705, 0.08349588513374329], [-0.009143002331256866, -0.06296510994434357, -0.0792999416589737, -0.03241605684161186, 0.11647004634141922, -0.06785080581903458, -0.04357140138745308, 0.06770554929971695, 0.10223116725683212, 0.013262693770229816, -0.058370936661958694, 0.06351111084222794, 0.0037475326098501682, -0.04826992750167847, -0.013750334270298481, -0.06204180791974068, 0.023389264941215515, -0.014140242710709572, 0.052402570843696594, -0.04065336287021637, 0.03895590081810951, 0.048045434057712555, -0.0902366116642952, -0.07594659924507141, -0.12245789170265198, -0.1081196740269661, 0.05219767615199089, -0.0509326308965683, 0.04833320900797844, 0.02156965248286724, -0.0534716360270977, 0.0015992940170690417, 0.0014184183673933148, 0.008454089052975178, -0.16953454911708832, 0.0415489599108696, 0.055393945425748825, -0.034525785595178604, -0.025122016668319702, 0.03599705547094345, 0.055207397788763046, -0.004858864936977625, -0.04927350580692291, -0.0643920823931694, -0.07290724664926529, 0.08931063115596771, -0.11864754557609558, -0.026799997314810753, 0.02815234661102295, 0.010377680882811546, -0.018158866092562675, 0.0843709260225296, 0.012472056783735752, 0.06093817576766014, 0.028926625847816467, -0.10525672137737274, -0.0524129718542099, 0.006502287928014994, -0.00682335440069437, 0.07500773668289185, 0.11892802268266678, -0.03484727442264557, -0.026366500183939934, -0.04209290072321892, -0.07112129032611847, -0.045979201793670654, -0.08658502995967865, 0.03167291358113289, 0.08820472657680511, 0.012255461886525154, -0.10151403397321701, -0.07129864394664764, -0.03675353154540062], [0.034041814506053925, 0.002854868769645691, 0.021280653774738312, 0.0881383866071701, 0.02268160507082939, -0.03447989001870155, -0.022906342521309853, 0.0600922591984272, 0.024383293464779854, -0.12834623456001282, -0.040107931941747665, -0.016107073053717613, 0.0631115734577179, 0.09305769205093384, -0.07401961833238602, -0.11626158654689789, -0.03241811320185661, -0.04683086276054382, 0.02554469369351864, -0.05646669864654541, 0.07955210655927658, 0.01972324401140213, 0.08238060027360916, -0.09703896194696426, 0.04844418913125992, 0.020935898646712303, -0.05159030854701996, 0.0891343429684639, -0.18935416638851166, 0.06990939378738403, 0.0026648666244000196, -0.02559032291173935, 0.04311513900756836, 0.0029603997245430946, 0.03155524283647537, 0.050238486379384995, -0.09830404072999954, 0.07806545495986938, -0.017058318480849266, -0.007186945993453264, -0.05541280284523964, 0.07392551749944687, -0.08106908202171326, -0.11637674272060394, 0.04307077080011368, -0.042055774480104446, 0.00107683171518147, -0.0005689743557013571, 0.029956087470054626, 0.09623251110315323, -0.0737743154168129, -0.05509268864989281, -0.0034437663853168488, -0.023176424205303192, 0.01167372614145279, -0.13069579005241394, 0.07013493031263351, 0.004549758974462748, -0.061539992690086365, -0.04994826391339302, -0.011690301820635796, 0.02632242441177368, -0.032421622425317764, 0.07789218425750732, 0.009262723848223686, -0.017294032499194145, 0.07577665150165558, -0.03040175326168537, -0.06399546563625336, -0.004161107819527388, 0.051797155290842056, 0.006658945232629776, 0.05267420411109924], [0.07584714144468307, 0.033098988234996796, 0.040693871676921844, -0.0036184857599437237, 0.03033633343875408, 0.12360553443431854, 0.05383991822600365, 0.03154483810067177, 0.0321534164249897, 0.05810786783695221, -0.1540670394897461, 0.11161763221025467, 0.05365031585097313, -0.03230009227991104, 0.006640901789069176, -0.09434176981449127, 0.10607310384511948, -0.014128872193396091, -0.01341202761977911, 0.0478360690176487, -0.08303514868021011, -0.06891707330942154, -0.048202503472566605, 0.08132888376712799, -0.09922254085540771, 0.08386420458555222, 0.07148122787475586, 0.07507798820734024, 0.1374838650226593, 0.023453745990991592, -0.10513647645711899, 0.05191349983215332, 0.010318185202777386, -0.05903664603829384, -0.1409468948841095, -0.030776094645261765, -0.07583791762590408, 0.14864493906497955, 0.08964782953262329, 0.0545794777572155, 0.12282110750675201, -0.05963293835520744, -0.071365125477314, -0.057530246675014496, -0.02541160210967064, 0.06614265590906143, -2.682576814549975e-05, 0.128816157579422, -0.018725644797086716, -0.08669696003198624, -0.02664235234260559, 0.027561983093619347, 0.0991889238357544, 0.06769135594367981, -0.02876940369606018, -0.11882982403039932, -0.02610384300351143, 0.016231227666139603, -0.048308711498975754, 0.07640077918767929, 0.007035460788756609, -0.014875906519591808, 0.06884420663118362, -0.07354054600000381, -0.04216307774186134, -0.06536762416362762, -0.10416227579116821, 0.013452927581965923, 0.05744354426860809, -0.022441329434514046, 0.06342457979917526, -0.06961792707443237, -0.07304523140192032], [-0.0722903460264206, -0.04044999182224274, -0.012998372316360474, -0.02811352349817753, 0.013635748997330666, -0.11408468335866928, 0.03516710177063942, 0.020936893299221992, 0.02294808067381382, 0.12679795920848846, 0.11658857017755508, -0.06411048769950867, -0.06975626200437546, 0.02973233535885811, -0.03265608847141266, 0.05340875685214996, -0.02444421499967575, 0.10351070761680603, 0.06603856384754181, -0.018604783341288567, 0.011457660235464573, 0.04060348868370056, -0.006051602773368359, 0.10920257866382599, -0.09476528316736221, 0.0732433944940567, -0.05645523592829704, -0.08380791544914246, -0.10435985028743744, 0.07208143919706345, 0.10578180849552155, 0.018130037933588028, 0.013491653837263584, 0.004863432142883539, -0.0281380508095026, 0.013662714511156082, 0.0005481746047735214, 0.10433228313922882, 0.07074607163667679, -0.07566212862730026, -0.08184805512428284, -0.07419764995574951, -0.01827443391084671, -0.10414747148752213, 0.05275197699666023, -0.028131097555160522, 0.11673630774021149, 0.1263919472694397, -0.08567506074905396, -0.09853925555944443, 0.03426679968833923, 0.02246713824570179, -0.007742705289274454, -0.06474274396896362, 0.0717238187789917, -0.11829040199518204, -0.04644956439733505, -0.035544998943805695, 0.0456087552011013, -0.018094364553689957, -0.04149755463004112, -0.04765202850103378, -0.047805387526750565, -0.11116344481706619, 0.0018579162424430251, 0.0036903158761560917, -0.047495946288108826, -0.04486585035920143, -0.010942655615508556, -0.1098436564207077, -0.07078763842582703, -0.02132619358599186, 0.0835723876953125], [-0.035991132259368896, 0.05801255255937576, -0.04606159031391144, -0.046939946711063385, -0.021070165559649467, 0.0739956945180893, 0.05168506130576134, 0.07376562058925629, 0.08306015282869339, 0.0716690942645073, 0.036233797669410706, 0.0701928585767746, -0.09347318112850189, -0.170841246843338, -0.0612618550658226, 0.011495955288410187, -0.08456771820783615, -0.05843140929937363, -0.014886688441038132, -0.1555437594652176, 0.002693894086405635, -0.008499642834067345, -0.06623438745737076, 0.07059872150421143, -0.0815357118844986, -0.012530620209872723, 0.09412680566310883, 0.10709666460752487, -0.01763409748673439, -0.0583345964550972, -0.03671160712838173, -0.05889495462179184, 0.08024688065052032, 0.07724805921316147, -0.14352457225322723, -0.08780470490455627, -0.05973108485341072, -0.03657514229416847, 0.019042402505874634, -0.02419362962245941, -0.08667908608913422, 0.026513880118727684, -0.0656578540802002, -0.1294538825750351, -0.08735861629247665, -0.016293155029416084, 0.05559676140546799, 0.07100741565227509, 0.029360180720686913, 0.023392166942358017, 0.05585889518260956, 0.04340999945998192, -0.07783732563257217, -0.05813352391123772, -0.01848478801548481, -0.03548482432961464, -0.07118123769760132, 0.016534628346562386, -0.08450733125209808, 0.08744607865810394, 0.15974600613117218, 0.12113379687070847, 0.017046403139829636, -0.09744742512702942, -0.047454264014959335, -0.13617347180843353, -0.06465931236743927, -0.03720894083380699, -0.023769380524754524, -0.10681786388158798, 0.012438066303730011, 0.08440716564655304, -0.048695728182792664], [0.03155035525560379, -0.013573765754699707, -0.004268772900104523, 0.03939985856413841, 0.07622288912534714, 0.00952174048870802, -0.05959904566407204, -0.057077355682849884, 0.07211630046367645, 0.0395207479596138, -0.09495165199041367, 0.001631594030186534, -0.0558696947991848, -0.1752336174249649, -0.05041000619530678, 0.03869770094752312, 0.07360578328371048, 0.09024722129106522, -0.010694960132241249, 0.012225206941366196, 0.08512049168348312, 0.00699889101088047, 0.018509641289711, 0.018734246492385864, 0.022790299728512764, -0.05538532882928848, -0.021960465237498283, 0.0017980138072744012, 0.1167459785938263, 0.07642368972301483, 0.05284331366419792, 0.06896980851888657, -0.07629647105932236, 0.09021652489900589, 0.04387413710355759, 0.008987024426460266, -0.045102864503860474, 0.003149267053231597, -0.05497211217880249, 0.0031432881951332092, -0.038883235305547714, 0.02762327715754509, -0.02446700446307659, -0.05855639651417732, -0.03979925066232681, -0.041257329285144806, -0.14187222719192505, -0.04250604286789894, 0.04372337833046913, 0.06832513213157654, 0.11543991416692734, -0.08961823582649231, 0.05991755798459053, -0.04941096156835556, -0.05447731539607048, -0.0403335839509964, -0.05061958357691765, -0.07170874625444412, -0.14259029924869537, -0.07571449130773544, 0.09724152088165283, 0.09016431868076324, -0.05386248603463173, -0.12037384510040283, -0.1483786255121231, -0.04966956749558449, 0.003983394242823124, 0.09830813109874725, 0.06514813750982285, -0.006073225289583206, 0.0554388128221035, -0.056119684129953384, -0.052131205797195435], [0.025544248521327972, -0.06453659385442734, 0.033295683562755585, 0.107454314827919, -0.05314351245760918, -0.07787463814020157, 0.05606143921613693, -0.08114656805992126, 0.041319478303194046, -0.06799820065498352, 0.09363666921854019, -0.11042467504739761, -0.09853173047304153, 0.08207865059375763, -0.012274322099983692, 0.09786194562911987, 0.056660834699869156, -0.03491893410682678, -0.007344017270952463, -0.021115414798259735, -0.056408125907182693, 0.05834246426820755, -0.19998660683631897, -0.09739133715629578, 0.0763663575053215, -0.1673949509859085, 0.048570118844509125, -0.014292129315435886, 0.03904588893055916, 0.07285623252391815, -0.053214773535728455, 0.020192986354231834, 0.010294390842318535, 0.016467325389385223, -0.08497304469347, 0.015126395970582962, -0.07503336668014526, -0.05033918842673302, 0.07287103682756424, -0.01427395362406969, -0.016438724473118782, -0.039201147854328156, 0.07606521993875504, 0.07506967335939407, -0.0030629264656454325, -0.04571188986301422, -0.055580418556928635, 0.024862974882125854, 0.09476228803396225, -0.02616533823311329, -0.1110149547457695, 0.08397359400987625, 0.008191454224288464, 0.052899863570928574, 0.0781036987900734, 0.042685944586992264, -0.09622257947921753, 0.10048528760671616, -0.028711628168821335, 0.044261809438467026, -0.07297665625810623, -0.09321153163909912, -0.0911523774266243, 0.010653669014573097, 0.07600915431976318, -0.015494528226554394, -0.11567820608615875, 0.04609077796339989, 0.04275152459740639, -0.02673419564962387, -0.10370524972677231, -0.07864615321159363, -0.08620552718639374], [0.07228349894285202, -0.03828258812427521, -0.03370967507362366, -0.04299147054553032, -0.09438568353652954, 0.1164766401052475, 0.10138706862926483, -0.014727561734616756, -0.06481123715639114, 0.13138385117053986, -0.03269617259502411, -0.029901918023824692, -0.007574578281491995, -0.0955967828631401, 0.06446892023086548, 0.053476788103580475, 0.05799221247434616, -0.00791677925735712, 0.12329734861850739, -0.08081582188606262, -0.05234730243682861, -0.060860730707645416, -0.15407569706439972, -0.09468983113765717, -0.0838969424366951, -0.007313794456422329, -0.01391349546611309, -0.02987641468644142, -0.04449447989463806, 0.07844165712594986, 0.005219249054789543, 0.04060403257608414, 0.05080275982618332, -0.10358187556266785, 0.005391732323914766, 0.058660272508859634, 0.10092780739068985, 0.0026899271178990602, 0.042038094252347946, -0.08827892690896988, -0.04803229868412018, 0.10695193707942963, 0.0011651178356260061, 0.10114327818155289, 0.00051402352983132, -0.042479973286390305, 0.049720797687768936, 0.11073525249958038, -0.016546007245779037, -0.08178152143955231, -0.043101947754621506, -0.061105579137802124, 0.0780431404709816, 0.005710254888981581, 0.024682216346263885, 0.049199823290109634, 0.04282275587320328, -0.04616399481892586, 0.08136176317930222, 0.03903021663427353, -0.07295380532741547, 0.06796558946371078, 0.011799365282058716, -0.027622850611805916, -0.12246953696012497, -0.09588197618722916, -0.13977578282356262, 0.12945780158042908, 0.11854328960180283, 0.03747764974832535, 0.1310817152261734, -0.002100410172715783, 0.016797207295894623], [-0.08156527578830719, -0.004948310554027557, 0.04731152206659317, 0.048470862209796906, 0.0022899515461176634, 0.0008963183499872684, 0.0781482458114624, 0.032076381146907806, 0.03471449017524719, -0.06665797531604767, -0.036283303052186966, 0.013406957499682903, 0.11014661937952042, -0.07138435542583466, 0.01970735751092434, 0.0019914491567760706, 0.0820700004696846, 0.034250449389219284, 0.09556019306182861, 0.05842076614499092, -0.06349648535251617, -0.0409841313958168, -0.08040546625852585, -0.07438284158706665, 0.027903849259018898, 0.06627535820007324, 0.009060588665306568, 0.1172238290309906, -0.02691079117357731, -0.01873147487640381, -0.026592932641506195, -0.019549140706658363, -0.0011462081456556916, 0.09223680198192596, -0.0721219927072525, -0.06055520474910736, 0.030640482902526855, 0.10122441500425339, 0.015164738520979881, 0.0543406717479229, 0.03945038095116615, 0.09917612373828888, 0.07638248056173325, 0.08417458832263947, 0.01548903901129961, -0.08126021176576614, -0.07836231589317322, 0.07175689190626144, 0.07320493459701538, -0.04683679714798927, 0.10287513583898544, 0.015326260589063168, -0.010896317660808563, 0.025796199217438698, -0.03304028883576393, 0.10403669625520706, 0.021409297361969948, 0.05489067733287811, -0.10315372794866562, -0.0429995134472847, 0.022936208173632622, 0.10634852200746536, 0.06532847136259079, -0.023058682680130005, -0.14994001388549805, -0.00010170549649046734, -0.08583726733922958, -0.09807377308607101, 0.035280369222164154, -0.05167749896645546, 0.12908923625946045, -0.032721035182476044, 0.07814764976501465], [0.06869880110025406, -0.09096872806549072, 0.05989932268857956, 0.041059479117393494, 0.11366702616214752, 0.1009742021560669, -0.014714675955474377, -0.06346990168094635, 0.08186303824186325, 0.015391089022159576, 0.001296664122492075, 0.07500118762254715, -0.10371215641498566, 0.013261334039270878, 0.049727391451597214, 0.04869189113378525, -0.003365267300978303, 0.05320777744054794, -0.041040848940610886, 0.03329317271709442, 0.07310759276151657, 0.03251255676150322, -0.03136151656508446, 0.0386270172894001, 0.042038727551698685, -0.11035063117742538, -0.06004895269870758, -0.10190887004137039, 0.09222577512264252, -0.05729100853204727, 0.016800057142972946, 0.05008575692772865, -0.05711684748530388, 0.004796761553734541, -0.044648364186286926, -0.03511444479227066, 0.01567981392145157, -0.17534363269805908, -0.12604331970214844, 0.05640942603349686, 0.11466491222381592, -0.000572940509300679, 0.0011007499415427446, 0.12271256744861603, -0.07517344504594803, -0.06211524456739426, -0.04052520915865898, -0.019710643216967583, 0.005587091203778982, -0.18155121803283691, 0.06665365397930145, -0.07345058023929596, 0.17558687925338745, -0.05445723235607147, -0.022945180535316467, 0.06808856129646301, -0.047940004616975784, 0.04956137761473656, -0.01712907664477825, -0.0019260711269453168, -0.05584435164928436, -0.035211775451898575, 0.08778364956378937, 0.08197590708732605, 0.0545651949942112, -0.044538747519254684, 0.06859245896339417, -0.04223516955971718, 0.032748088240623474, -0.13316212594509125, -0.010416179895401001, -0.09229649603366852, 0.08163351565599442], [0.01941528171300888, -0.08405770361423492, 0.010052524507045746, -0.06268539279699326, 0.03318304568529129, 0.03397088870406151, -0.04280153289437294, 0.04026355594396591, -0.06128460913896561, 0.005837855860590935, -0.11655953526496887, 0.008273451589047909, 0.1251852661371231, 0.0658704861998558, 0.049529775977134705, 0.07421740144491196, 0.13470754027366638, 0.037621527910232544, 0.03235509246587753, 0.008100444450974464, 0.11448559165000916, 0.12699705362319946, -0.044363345950841904, 0.00997524056583643, -0.05929727479815483, 0.04686053842306137, -0.10448644310235977, 0.08053243905305862, -0.017795870080590248, 0.07163190841674805, 0.041876714676618576, -0.09328989684581757, 0.06786917895078659, 0.04551822319626808, -0.11079119890928268, 0.1212649941444397, 0.1007792130112648, 0.09848204255104065, -0.007896926254034042, 0.04365679249167442, -0.053997550159692764, -0.037413906306028366, 0.08375367522239685, 0.046123094856739044, 0.07089488953351974, -0.07532484829425812, 0.07806842029094696, -0.03034648858010769, 0.11032678186893463, 0.10319391638040543, 0.032922014594078064, 0.131809800863266, 0.063067227602005, 0.07630909979343414, 0.007769611664116383, 0.0965115949511528, 0.03069106675684452, 0.055989980697631836, -0.04350867494940758, 0.09982135891914368, 0.10040076822042465, -0.0715656504034996, 0.0975436270236969, -0.09379994869232178, -0.11309120804071426, -0.09580116719007492, 0.013924719765782356, -0.0990222692489624, -0.047692593187093735, -0.04200262948870659, 0.014514235779643059, -0.1302090734243393, -0.017116568982601166], [0.0008562132716178894, 0.010510541498661041, -0.052858635783195496, 0.006173179484903812, -0.02804134041070938, -0.08915918320417404, -0.03690265491604805, -0.03521186485886574, 0.08307234942913055, -0.0713241919875145, -0.03618410602211952, 0.07093702256679535, -0.10155749320983887, 0.012789608910679817, -0.03922373801469803, -0.045964986085891724, -0.04541041702032089, -0.029894545674324036, -0.05842547118663788, -0.1437964290380478, 0.052709389477968216, -0.06022296100854874, 0.07818373292684555, 0.07520215213298798, 0.060188837349414825, 0.03900141641497612, 0.05910792201757431, 0.11525578051805496, 0.09101960808038712, -0.0517796166241169, -0.01140707079321146, -0.14657796919345856, 0.016330499202013016, -0.04371998459100723, 0.029999881982803345, 0.04234495386481285, 0.01239769160747528, -0.03660837560892105, -0.07121212035417557, 0.03184192255139351, -0.037742648273706436, -0.04460226744413376, 0.10431289672851562, -0.09631272405385971, -0.032280441373586655, 0.07810834050178528, -0.01571313664317131, -0.03782004117965698, 0.0692605972290039, 0.10085631906986237, -0.054265618324279785, 0.025999628007411957, 0.048370376229286194, 0.014065807685256004, 0.1333436518907547, -0.06854786723852158, 0.09500855952501297, -0.09453164786100388, -0.1296555995941162, 0.08115372061729431, -0.02671840600669384, 0.060523420572280884, 0.037196677178144455, -0.1355149894952774, -0.19011889398097992, 0.0009943724144250154, 0.06719616800546646, -0.007785416208207607, 0.10572845488786697, 0.07434466481208801, -0.03292874991893768, -0.11297689378261566, 0.08962471038103104], [0.05360960215330124, 0.018097318708896637, 0.08278369158506393, -0.12631280720233917, -0.017497463151812553, -0.04121493175625801, -0.03002421371638775, 0.032417431473731995, 0.052499812096357346, 0.04984746500849724, -0.11445726454257965, -0.09452368319034576, 0.008226095698773861, -0.06352202594280243, -0.08936281502246857, 0.10543785989284515, 0.019844137132167816, -0.055266123265028, 0.03801216557621956, 0.03687398135662079, -0.05987757444381714, 0.039802610874176025, -0.04934943839907646, 0.05121128261089325, 0.10889085382223129, 0.09512784332036972, 0.07975682616233826, -0.04803760349750519, 0.03796020522713661, 0.01314189750701189, 0.039884455502033234, -0.018878687173128128, -0.03040456958115101, -0.05836041644215584, -0.05654922500252724, -0.13453644514083862, -0.10227271169424057, -0.042179565876722336, 0.07995481789112091, 0.002255477709695697, -0.10953982174396515, -0.056768838316202164, 0.012923626229166985, -0.0158516988158226, -0.01047645602375269, -0.05364635959267616, -0.010894755832850933, 0.032820943742990494, -0.03049231693148613, 0.10240132361650467, 0.08518657088279724, 0.10129545629024506, 0.0007058265618979931, -0.040284670889377594, -0.033952247351408005, -0.09782610088586807, 0.058219101279973984, -0.006522784009575844, -0.037121355533599854, -0.11047831922769547, 0.027964243665337563, 0.09715394675731659, 0.0935993641614914, -0.014684057794511318, 0.013685444369912148, -0.030783740803599358, -0.06463154405355453, -0.022931085899472237, 0.09551706910133362, 0.006165060214698315, 0.09771962463855743, 0.07631201297044754, 0.08155693113803864], [0.07708043605089188, 0.05728181451559067, 0.05047779530286789, 0.06170748919248581, -0.09874171018600464, -0.07764804363250732, -0.009119881317019463, 0.07336775213479996, 0.0473945289850235, 0.07749312371015549, 0.011447074823081493, -0.023490233346819878, -0.045003827661275864, 0.14137133955955505, -0.0681380182504654, -0.033849768340587616, 0.032888710498809814, 0.02458738163113594, -0.03291228041052818, -0.07241511344909668, -0.08195104449987411, 0.11047400534152985, -0.12435301393270493, 0.09588172286748886, 0.12192237377166748, -0.00847419910132885, -0.018378984183073044, 0.10067185759544373, -0.003153726924210787, 0.08512832224369049, 0.10068033635616302, -0.07882668823003769, 0.0767342746257782, 0.08527792245149612, -0.06332703679800034, 0.02426713891327381, -0.0646805539727211, -0.09338007867336273, 0.011281097307801247, 0.012321533635258675, -0.10084888339042664, -0.08842001110315323, 0.08004454523324966, 0.09055474400520325, -0.054031915962696075, -0.05324503779411316, -0.012050299905240536, -0.09142050892114639, -0.08070747554302216, -0.048400502651929855, 0.042573802173137665, -0.05703013762831688, -0.04711126908659935, -0.0793580412864685, -0.0968216210603714, -0.04501524567604065, -0.03300250694155693, -0.004415290430188179, 0.07163748145103455, 0.026564672589302063, 0.09039633721113205, 0.02124861069023609, 0.022866569459438324, 0.0747128278017044, -0.03084050863981247, 0.06056404113769531, 0.04378094896674156, -0.06049516052007675, -0.00866587832570076, -0.11018949747085571, -0.10774402320384979, -0.0012952848337590694, 0.005930791608989239], [-0.025246448814868927, 0.03615986555814743, -0.0903560221195221, -0.08852902799844742, -0.009774823673069477, -0.12264219671487808, 0.05039236322045326, 0.08545917272567749, 0.04597928002476692, 0.021612340584397316, -0.05304807424545288, -0.01577216200530529, -0.026944100856781006, 0.029500236734747887, 0.11876099556684494, -0.019471919164061546, -0.13987630605697632, -0.08568927645683289, 0.0447656624019146, -0.010390568524599075, 0.08990779519081116, 0.016241515055298805, -0.09186980873346329, 0.022876806557178497, 0.10175767540931702, 0.0915321409702301, 0.012559480965137482, -0.09188615530729294, -0.14644251763820648, 0.05092984810471535, -0.0810951516032219, -0.005052756518125534, -0.012908956967294216, 0.02410023845732212, 0.024361899122595787, -0.08823176473379135, -0.056017402559518814, 0.11136101186275482, 0.000708092818967998, 0.06825779378414154, -0.15768073499202728, 0.058070309460163116, -0.024513153359293938, -0.08295334875583649, -0.0014507690211758018, -0.018012607470154762, -0.04240493103861809, -0.03816746547818184, -0.038039855659008026, -0.022627150639891624, 0.026553485542535782, -0.08372313529253006, -0.006905306130647659, 0.11298590898513794, 0.024493537843227386, -0.04830356314778328, -0.12326923757791519, 0.04051143303513527, 0.08307553827762604, 0.08056473731994629, 0.010548439808189869, 0.03248162195086479, 0.10497897863388062, 0.02700175903737545, -0.07086650282144547, -0.14522285759449005, 0.05663608759641647, 0.04708098992705345, 0.09741917997598648, -0.0458044558763504, 0.013641983270645142, -0.05081159994006157, -0.013537922874093056], [0.06829193979501724, -0.10728903859853745, 0.08627539128065109, 0.061528027057647705, -0.07052631676197052, 0.05611212179064751, -0.03469620272517204, -0.0012065144255757332, -0.021025393158197403, -0.09277541190385818, -0.029722383245825768, 0.05846843123435974, -0.028807684779167175, -0.08390982449054718, 0.00578137394040823, 0.04240836575627327, -0.02405260130763054, -0.06950552761554718, -0.08300784975290298, 0.008340665139257908, 0.0368080735206604, 0.10149011015892029, 0.027316490188241005, 0.06502792239189148, 0.027532044798135757, -0.053827788680791855, -0.027321625500917435, 0.07826261967420578, 0.09136296808719635, 0.016767313703894615, -0.11554004997015, 0.0763881579041481, -0.10071973502635956, 0.04743879288434982, 0.0018761666724458337, 0.05325421690940857, -0.0908113494515419, -0.06980367749929428, 0.0722912922501564, 0.09328650683164597, 0.009150637313723564, 0.13096308708190918, -0.016540050506591797, -0.08284763246774673, -0.024314213544130325, 0.014965604990720749, -0.03545721247792244, 0.03776230663061142, -0.0715118870139122, -0.083388552069664, -0.10787350684404373, 0.10147684067487717, -0.03873191401362419, -0.09527494758367538, -9.230768773704767e-05, -0.025368690490722656, 0.029880648478865623, -0.022448187693953514, 0.04962553083896637, -0.025858229026198387, -0.03640097752213478, -0.06957583874464035, 0.01418344210833311, 0.05976644903421402, 0.008430968038737774, 0.10121404379606247, 0.08347050845623016, -0.04417616128921509, -0.016800889745354652, -0.055806390941143036, 0.08617953956127167, -0.04666045308113098, 0.03104752115905285], [0.0069925785064697266, -0.07683346420526505, -0.07868607342243195, -0.1071222797036171, -0.10781101137399673, 0.03252340480685234, 0.032968562096357346, 0.01914150081574917, -0.09146704524755478, 0.027204938232898712, -0.1706801801919937, -0.012519175186753273, 0.06502825766801834, -0.15792015194892883, 0.08704227209091187, -0.012184332124888897, 0.07085880637168884, -0.03396419808268547, 0.04918516054749489, 0.10027078539133072, -0.039671801030635834, -0.03745216503739357, 0.061048805713653564, -0.10008546710014343, 0.10276445001363754, -0.059137843549251556, 0.09311626106500626, -0.081291064620018, -0.03738921880722046, 0.04526340961456299, -0.06209500879049301, 0.09704015403985977, 0.03856530040502548, 0.057369962334632874, -0.08580931276082993, 0.0011713471030816436, -0.017666740342974663, 0.03678285330533981, -0.09927545487880707, 0.039608098566532135, -0.0020745990332216024, -0.0704294815659523, -0.1058705598115921, 0.07311830669641495, -0.04578956216573715, 0.07094599306583405, 0.007487005088478327, 0.027153700590133667, -0.07386782765388489, -0.002981456695124507, -0.07244645804166794, -0.14651307463645935, 0.043462350964546204, -0.08303026109933853, 0.029883403331041336, -0.05703289061784744, 0.07463179528713226, 0.10537192970514297, -0.08837029337882996, 0.05893976241350174, -0.04691794514656067, -0.1046823114156723, 0.010858298279345036, 0.07199215143918991, 0.08343462646007538, -0.14756779372692108, 0.07945892959833145, 0.1017547994852066, 0.12782131135463715, 0.08385062962770462, -0.010110534727573395, 0.12671686708927155, 0.09870360046625137], [-0.04475300759077072, -0.01913159340620041, 0.09158847481012344, 0.0744505375623703, 0.13163261115550995, 0.09419884532690048, -0.06618568301200867, 0.011150957085192204, -0.039344049990177155, 0.04351883381605148, -0.022303659468889236, -0.0748874843120575, -0.02267862670123577, -0.22085826098918915, -0.09898227453231812, 0.0937347561120987, -0.004592831712216139, 0.03566566854715347, 0.005595211870968342, -0.057019222527742386, 0.0003665368421934545, 0.015493023209273815, 0.0009365309961140156, 0.09249044209718704, 0.015037940815091133, 0.09744952619075775, -0.11217334866523743, -0.03222343325614929, -0.03962353989481926, 0.018573936074972153, -0.014437695033848286, -0.03632647544145584, 0.10449150204658508, 0.04130440205335617, -0.13554981350898743, -0.0202694833278656, 0.10277370363473892, 0.05396775156259537, -0.004574716556817293, -0.016335463151335716, 0.022663535550236702, 0.040071114897727966, -0.05826563760638237, 0.04468941688537598, 0.058455824851989746, -0.06432182341814041, -0.08940116316080093, 0.016513988375663757, 0.04756196588277817, -0.018000764772295952, 0.09682752192020416, -0.08991444855928421, -0.03594886139035225, -0.05027740076184273, 0.07464165985584259, -0.000383666978450492, -0.003206143621355295, 0.09143572300672531, -0.09590398520231247, 0.03013940341770649, -0.023712271824479103, 0.062393978238105774, -0.07756911218166351, -0.12958739697933197, -0.15330928564071655, 0.017004193738102913, -0.0414622463285923, 0.05970107391476631, -0.04022270813584328, 0.01578492857515812, -0.015437695197761059, 0.10237781703472137, -0.008721099235117435], [0.06785131245851517, 0.03228836506605148, 0.07118473201990128, 0.05165683105587959, 0.02610563114285469, -0.04854189604520798, -0.03743148222565651, 0.05993539094924927, 0.05614227056503296, -0.022909732535481453, 0.06608065217733383, -0.0327034592628479, 0.07194525003433228, 0.0010727011831477284, -0.037467166781425476, -0.06497505307197571, -0.11826479434967041, 0.04096197336912155, -0.04928681254386902, -0.037114351987838745, -0.03899142146110535, -0.0664098784327507, 0.010703201405704021, 0.011893149465322495, -0.011574860662221909, 0.09107314050197601, -0.06479958444833755, 0.08734025806188583, -0.06477517634630203, -0.027026813477277756, -0.06599951535463333, -0.010643841698765755, 0.0510174036026001, 0.02261083945631981, -0.07693672180175781, 0.06284929811954498, 0.024229692295193672, -0.08803261071443558, 0.012049360200762749, -0.011677943170070648, -0.10588084906339645, -0.039979781955480576, -0.11746518313884735, 0.0703553855419159, -0.10359468311071396, 0.1329728364944458, -0.11438339948654175, 0.015236958861351013, 0.00040686369175091386, -0.035245176404714584, 0.07982321828603745, 0.08210348337888718, -0.10809281468391418, -0.015684332698583603, 0.07288885861635208, -0.03343292325735092, 0.05180104821920395, 0.0570690855383873, -0.06704596430063248, -0.05057494714856148, 0.09507967531681061, -0.05338044464588165, -0.03522835299372673, -0.08660716563463211, -0.08344141393899918, 0.085206538438797, 0.02374115400016308, 0.04035073518753052, 0.0379752479493618, -0.05720657855272293, 0.07797082513570786, -0.033144425600767136, -0.029976746067404747], [0.09538347274065018, -0.05962200462818146, 0.023766182363033295, -0.11796718835830688, 0.03148752450942993, 0.0063360934145748615, -0.11397711932659149, 0.06738605350255966, -0.011445533484220505, -0.04988487437367439, 0.11821078509092331, 0.03984830528497696, 0.0542183592915535, -0.012545051984488964, -0.057163141667842865, -0.028195355087518692, -0.006337725557386875, -0.01279203500598669, -0.04783176630735397, 0.0721249207854271, 0.08310464769601822, -0.05225108936429024, 0.060805611312389374, -0.03130212798714638, 0.03004343807697296, 0.11198113113641739, -0.12407631427049637, -0.004219526890665293, -0.07027419656515121, 0.008997857570648193, -0.10061611980199814, -0.14984971284866333, -0.03325796499848366, -0.004462596494704485, -0.004911190830171108, -0.01117024291306734, 0.011257232166826725, 0.012400439940392971, 0.020549621433019638, 0.03998992219567299, 0.0016169000882655382, 0.06071372330188751, -0.04030773788690567, -0.11033945530653, 0.036531370133161545, -0.05788113549351692, 0.04475836083292961, 0.044403526932001114, 0.05009043961763382, -0.04485049843788147, 0.007262781262397766, -0.05211414769291878, -0.1584852635860443, 0.08477509021759033, -0.058136794716119766, -0.12349143624305725, -0.04367411136627197, 0.058719150722026825, -0.010209981352090836, -0.05545330047607422, 0.023765113204717636, -0.03907860070466995, 0.1043865904211998, 0.09242627024650574, 0.03932906687259674, -0.012263223528862, 0.11394789069890976, -0.10903675109148026, 0.08292465656995773, -0.0483764223754406, 0.08442628383636475, -0.07842746376991272, 0.046945396810770035], [-0.09622929990291595, 0.06831084936857224, 0.02140093594789505, 0.09065743535757065, -0.09755821526050568, 0.09962724149227142, -0.07578235864639282, -0.06983612477779388, 0.05432841554284096, -0.0012354986974969506, -0.1514880508184433, -0.0974520817399025, -0.04639464616775513, -0.027932539582252502, 0.12369563430547714, 0.07940695434808731, 0.023996863514184952, -0.06478588283061981, -0.11810456216335297, 0.12055443972349167, -0.03545049577951431, -0.04136982932686806, -0.05774158239364624, -0.047930873930454254, 0.014621967449784279, -0.036213550716638565, 0.03326524421572685, -0.03242618218064308, 0.04950227215886116, -0.048471711575984955, -0.012523366138339043, 0.06816908717155457, 0.06520009785890579, 0.11367496103048325, -0.07544983923435211, -0.08720320463180542, -0.021369438618421555, 0.00610979413613677, 0.05582661181688309, 0.0853051021695137, 0.0708722248673439, -0.05914892256259918, -0.03296907991170883, 0.08590197563171387, 0.052328526973724365, -0.09691372513771057, 0.012729478999972343, -0.08305589854717255, -0.07150482386350632, 0.10260862857103348, -0.019297538325190544, 0.05162162706255913, -0.08010495454072952, 0.14937512576580048, 0.029658183455467224, 0.08836130797863007, 0.06895019114017487, -0.03217296302318573, -0.059909623116254807, -0.052335239946842194, -0.12185529619455338, 0.10476326197385788, -0.03521275520324707, 0.014283091761171818, -0.12188167124986649, 0.008810531347990036, -0.03026491589844227, -0.06312531977891922, 0.044518765062093735, -0.06731972098350525, 0.022841263562440872, -0.05537966638803482, 0.07587049156427383], [-0.09294988960027695, 0.01911579817533493, 0.05795244127511978, -0.06781741231679916, 0.08018793165683746, 0.0920267403125763, -0.08090680092573166, -0.024481339380145073, 0.04737403988838196, 0.09150368720293045, 0.06553617119789124, -0.0813969224691391, -0.08311942219734192, -0.12963564693927765, -0.03721091151237488, -0.01937040500342846, -0.03573857620358467, 0.07378476858139038, -0.08230622112751007, -0.13032186031341553, -0.05138770863413811, -0.055134110152721405, 0.055539604276418686, 0.013428865931928158, -0.01641935110092163, -0.08300188183784485, -0.10820219665765762, -0.015964990481734276, 0.050546955317258835, 0.0676206722855568, 0.0820387527346611, -0.0050276340916752815, -0.029758034273982048, -0.05943019315600395, 0.08901090174913406, -0.0995888039469719, 0.05937587469816208, -0.015004698187112808, 0.12083771824836731, 0.0778292566537857, -0.027477357536554337, -0.06520528346300125, 0.016904333606362343, -0.0857640877366066, -0.017038974910974503, 0.03474310785531998, 0.045016851276159286, -0.042579807341098785, -0.08714607357978821, -0.09302300214767456, -0.10496624559164047, 0.019799252972006798, -0.0909430980682373, 0.0076643796637654305, -0.04194396361708641, -0.0727619007229805, 0.08437692373991013, 0.08185938000679016, 0.09253451228141785, 0.12292720377445221, -0.08118455857038498, -0.050942312926054, -0.07415582239627838, 0.09937713295221329, 0.017963629215955734, 0.04424988478422165, -0.12563456594944, -0.055457666516304016, 0.11803124099969864, -0.07406040281057358, -0.1462467610836029, -0.013957209885120392, -0.16903173923492432], [-0.03309164196252823, 0.04973156005144119, 0.09588413685560226, -0.031031854450702667, -0.03393004462122917, 0.06360819190740585, 0.08727126568555832, -0.08708538115024567, 0.019626708701252937, -0.0870642364025116, -0.06585267931222916, 0.024919159710407257, 0.07051786035299301, -0.006545305717736483, -0.1417812705039978, -0.02136107161641121, 0.08114046603441238, -0.05565943941473961, -0.01901523396372795, -0.041444696485996246, 0.09594804048538208, -0.11819916218519211, -0.08530180156230927, 0.10522474348545074, -0.06776556372642517, 0.08207344263792038, -0.055251047015190125, 0.0002202719624619931, -0.013815497048199177, 0.13070032000541687, 0.09579361230134964, -0.01676393300294876, -0.020369919016957283, -0.06166023388504982, -0.06754599511623383, -0.03945906087756157, 0.06301289051771164, 0.025223957374691963, 0.08549915254116058, -0.011791076511144638, 0.06751935929059982, -0.08093605935573578, 0.06457310914993286, -0.10789598524570465, 0.013539285399019718, 0.03924909234046936, -0.006041334476321936, 0.09841493517160416, 0.08603853732347488, -0.024286799132823944, -0.06901561468839645, -0.0947493314743042, 0.08017544448375702, 0.08815809339284897, -0.051738765090703964, 0.048083312809467316, -0.03928488865494728, 0.09804525971412659, -0.02305699698626995, 0.09594563394784927, 0.0957871824502945, 0.12134517729282379, 0.05303763970732689, 0.031199855729937553, 0.0264096911996603, -0.07487241178750992, -0.04589133337140083, -0.031101051717996597, 0.0604485459625721, -0.0480920746922493, 0.05967646837234497, 0.06181635335087776, 0.04859422147274017], [0.060240305960178375, -0.015600033104419708, 0.05606580525636673, -0.053065940737724304, 0.06048658490180969, -0.03527126461267471, -0.0018553893314674497, -0.09570485353469849, 0.10245619714260101, -0.014950817450881004, 0.1157800704240799, -0.04535582289099693, -0.07855501770973206, 0.05119679123163223, -0.10434868186712265, 0.028906967490911484, -0.021812256425619125, -0.020360196009278297, 0.053050488233566284, 0.07903548330068588, -0.12402967363595963, -0.09334972500801086, 0.0828128233551979, -0.06885794550180435, 0.028485169634222984, -0.02276579476892948, 0.051739614456892014, -0.07295452803373337, -0.05351642146706581, -0.04770863801240921, -0.05985160544514656, -0.048273857682943344, 0.00468594953417778, 0.0534508116543293, 0.033839643001556396, -0.031940970569849014, 0.07903631776571274, 0.13064461946487427, -0.008327812887728214, -0.09810227900743484, -0.0179616529494524, 0.029849516227841377, -0.09324085712432861, -0.10063619911670685, 0.0024101121816784143, 0.13309752941131592, -0.07258386164903641, -0.08440382778644562, -0.05295323207974434, -0.0803828090429306, -0.03953348845243454, 0.1001853495836258, 0.0648559033870697, -0.0723666176199913, -0.0183974951505661, -0.09860020130872726, 0.050209518522024155, -0.06543433666229248, -0.08206306397914886, -0.04278159886598587, -0.005333214998245239, 0.0691213384270668, -0.06170034408569336, 0.0752648413181305, 0.12553584575653076, 0.01888144016265869, 0.04604489356279373, 0.019387802109122276, 0.002007852541282773, 0.11103587597608566, 0.08093565702438354, -0.046299125999212265, 0.13007895648479462], [0.06734605878591537, -0.018313437700271606, 0.10190022736787796, 0.01047875452786684, 0.051959965378046036, -0.07802437990903854, 0.1331130862236023, 0.11634059995412827, -0.07743751257658005, -0.09123335033655167, 0.007445302791893482, -0.05144404619932175, 0.024508269503712654, 0.09560704976320267, -0.01270601712167263, 0.061843737959861755, -0.017507096752524376, -0.03049818053841591, -0.06536509096622467, -0.01827118918299675, -0.08305802196264267, -0.0002613431715872139, -0.03476624935865402, -0.0836101546883583, 0.05315816029906273, -0.041777897626161575, 0.07352092117071152, 0.05525460094213486, -0.11870529502630234, -0.06156732514500618, -0.03900459408760071, -0.05352373793721199, 0.042489442974328995, -0.06909404695034027, -0.07121087610721588, 0.03279280290007591, 0.07813719660043716, -0.02470199204981327, -0.09864557534456253, 0.02432987652719021, 0.03762875124812126, 0.08296259492635727, 0.016911834478378296, 0.07267002016305923, -0.05904041603207588, 0.10324626415967941, -0.04214191809296608, -0.07428774982690811, 0.06487452238798141, -0.013379397802054882, 0.08048616349697113, -0.08189140260219574, 0.06230050325393677, 0.11120890080928802, 0.041464440524578094, 0.09105855971574783, -0.06998860090970993, -0.0007278915145434439, 0.06291824579238892, 0.07532324641942978, -0.040771979838609695, 0.09202966094017029, -0.012332756072282791, 0.006783439312130213, 0.0034315676894038916, -0.12754203379154205, -0.1419888585805893, 0.07536985725164413, 0.05970349907875061, 0.09436529129743576, -0.07177767902612686, -0.13227784633636475, -0.15226435661315918], [0.11199652403593063, -0.10146649926900864, 0.03527539223432541, 0.06809259206056595, 0.02523542195558548, -0.08681181073188782, -0.0665837749838829, -0.056669268757104874, 0.03526844456791878, -0.11401674151420593, -0.03242635726928711, -0.08331076055765152, 0.08680649846792221, 0.14876388013362885, 0.08615730702877045, 0.06727916747331619, -0.10193287581205368, -0.0266240444034338, -0.09215075522661209, -0.009259683080017567, 0.0603671632707119, 0.030454089865088463, -0.03398612141609192, 0.024382207542657852, -0.07534145563840866, -0.0023257548455148935, -0.0017539820400997996, -0.032466910779476166, -0.1940903514623642, 0.08383561670780182, -0.054120391607284546, 0.00617089681327343, 0.04057908058166504, 0.02005067653954029, 0.08601601421833038, 0.05216291919350624, 0.026603471487760544, 0.026954537257552147, 0.08654525876045227, -0.05217277631163597, -0.17096860706806183, 0.028003757819533348, -0.013910074718296528, -0.03654991462826729, -0.08109527826309204, 0.03362118825316429, 0.058745793998241425, -0.028102189302444458, 0.0019071666756644845, 0.09050951153039932, -0.09129084646701813, -0.001741271698847413, -0.08876076340675354, -0.06655601412057877, 0.06346100568771362, 0.06648196280002594, 0.01591687835752964, 0.06873663514852524, -0.07885932177305222, 0.035433702170848846, -0.028811149299144745, -0.0523105151951313, 0.028755074366927147, 0.042299263179302216, -0.016416607424616814, 0.025682779029011726, 0.056130602955818176, 0.07021447271108627, -0.015064475126564503, 0.0029026034753769636, -0.03604718670248985, 0.030097272247076035, -0.08062665164470673], [-0.01440650224685669, -0.09897378832101822, -0.08209607005119324, -0.06755277514457703, 0.052777551114559174, -0.07837679982185364, 0.05225708708167076, -0.00781315378844738, 0.11534067988395691, 0.07211531698703766, -0.03006128966808319, 0.09580404311418533, -0.07368816435337067, 0.05076441913843155, 0.1070551648736, 0.1329849511384964, -0.0485205203294754, -0.10701864957809448, 0.05971076339483261, 0.13096432387828827, -0.06607666611671448, 0.004989463370293379, -0.0581660270690918, 0.047744348645210266, 0.0576949305832386, 0.07857586443424225, -0.0481281653046608, -0.07610425353050232, -0.07801386713981628, -0.08498842269182205, 0.016253212466835976, 0.05163676664233208, -0.12411082535982132, -0.013484095223248005, -0.09079443663358688, -0.08971668779850006, -0.06283128261566162, -0.0308669600635767, -0.0601404644548893, 0.03903316706418991, 0.04455007612705231, 0.1158953607082367, 0.05211590975522995, 0.047399211674928665, -0.03150703012943268, 0.09979952871799469, -0.034819845110177994, 0.08397574722766876, -0.10141783207654953, -0.08620945364236832, 0.01821102388203144, -0.025783292949199677, 0.009674177505075932, 0.10855544358491898, 0.057823508977890015, 0.1393769085407257, -0.05100088194012642, -0.03940310329198837, -0.0013362992322072387, -0.021541565656661987, -0.0681658536195755, -0.02035314217209816, 0.10870810598134995, -0.042172230780124664, 0.07993890345096588, 0.04699606075882912, 0.05442788451910019, 0.02948540821671486, -0.03350728377699852, 0.02341487817466259, -0.030132077634334564, -0.09482607990503311, 0.09876221418380737], [0.09701395779848099, -0.08458602428436279, 0.09506707638502121, 0.026721283793449402, -0.050559140741825104, 0.1192329004406929, 0.025425361469388008, -0.1296405792236328, 0.07949831336736679, -0.0377395898103714, -0.08457014709711075, 0.008051429875195026, 0.12958675622940063, -0.03659233823418617, -0.027392055839300156, 0.02083054929971695, 0.034954626113176346, -0.03884848207235336, 0.03681276738643646, -0.07979200780391693, -0.00296528241597116, -0.05057941749691963, -0.017073998227715492, 0.10644512623548508, 0.031104516237974167, 0.0815446674823761, -0.06960779428482056, 0.049061812460422516, 0.020792238414287567, 0.03842240571975708, -0.020145365968346596, -0.03995536267757416, -0.10899510979652405, 0.05678417161107063, 0.08477400243282318, 0.05681502819061279, 0.07554932683706284, 0.06573255360126495, 0.10068997740745544, 0.027936749160289764, 0.027092305943369865, 0.07523892819881439, -0.046460069715976715, 0.022753680124878883, 0.028113745152950287, -0.044344812631607056, -0.051915768533945084, -0.07467971742153168, -0.11255207657814026, 0.04006872698664665, 0.09185653924942017, -0.036491744220256805, 0.033967114984989166, -0.04150357097387314, -0.007705118507146835, -0.03525106608867645, -0.08434540033340454, -0.05685555934906006, 0.07336502522230148, 0.026813670992851257, -0.08415525406599045, -0.06086080148816109, -0.1213701143860817, -0.008635079488158226, 0.08424451947212219, 0.03862357139587402, 0.09181566536426544, -0.08598343282938004, -0.011526147834956646, 0.08222588151693344, -0.011664287187159061, -0.0031803178135305643, 0.13033440709114075], [0.0336117222905159, 0.05471362918615341, -0.10914286971092224, 0.09484507143497467, -0.03786646947264671, 0.014189515262842178, 0.13591772317886353, -0.1215868890285492, 0.0206774715334177, -0.08925442397594452, 0.06548744440078735, 0.018849296495318413, 0.07544246315956116, -0.05498439446091652, 0.026037907227873802, -0.06587516516447067, 0.026977116242051125, 0.10458194464445114, -0.09318647533655167, -0.019451338797807693, -0.012365381233394146, 0.040547605603933334, -0.0032379396725445986, 0.03846132755279541, 0.0009472759556956589, 0.04278889670968056, 0.06620833277702332, -0.026857933029532433, 0.06822692602872849, 0.04132995381951332, 0.07994178682565689, 0.005191646050661802, 0.04893946647644043, -0.09930071234703064, 0.10753614455461502, -0.0075083267875015736, 0.07826285064220428, -0.0640932023525238, 0.004279193002730608, -0.06550285965204239, 0.06534043699502945, 0.014789034612476826, -0.07011508196592331, 0.04494989663362503, -0.0024164810311049223, 0.05162602663040161, 0.14256680011749268, 0.0417589470744133, 0.016232451424002647, 0.09248729050159454, -0.12996232509613037, 0.07685478776693344, -0.026210207492113113, 0.049908529967069626, 0.0027602636255323887, 0.016144057735800743, 0.0450531505048275, -0.07839416712522507, 0.04384112358093262, 0.014695175923407078, -0.04982613027095795, 0.06205460801720619, -0.12660464644432068, -0.018889393657445908, 0.054902393370866776, 0.061328548938035965, -0.12242626398801804, 0.09150435030460358, 0.01666387729346752, 0.15223348140716553, -0.06948398798704147, 0.021076250821352005, -0.06995588541030884], [-0.07121701538562775, -0.019115962088108063, -0.10756969451904297, 0.055763788521289825, -0.025418147444725037, 0.024809904396533966, -0.07739479839801788, 0.027680911123752594, -0.09777455776929855, 0.08107458055019379, 0.09668473154306412, 0.07722998410463333, -0.05112689733505249, 0.05637839064002037, -0.060999806970357895, 0.05556793510913849, -0.019647972658276558, -0.058737702667713165, -0.09118446707725525, -0.12047640979290009, 0.014943918213248253, -0.06802792102098465, -0.06657033413648605, 0.12385772913694382, -0.0743933692574501, 0.014960846863687038, -0.0342438779771328, 0.08600359410047531, 0.005944747477769852, 0.08488158881664276, 0.039930399507284164, -0.07691192626953125, 0.14145110547542572, 0.020562823861837387, -0.10989344120025635, 0.05814423784613609, -0.0016732788644731045, -0.10377056896686554, 0.05225614458322525, 0.022055625915527344, -0.0871431902050972, -0.05282880738377571, -0.04918195679783821, -0.07760215550661087, 0.0034441696479916573, 0.1208709329366684, -0.10953626036643982, -0.01764901727437973, -0.05713273584842682, -0.012704991735517979, 0.04288732260465622, -0.042666416615247726, 0.02246915176510811, -0.09231476485729218, 0.12506617605686188, 0.0063514020293951035, -0.010333873331546783, -0.042259130626916885, 0.018323665484786034, 0.06917498260736465, -0.04706882685422897, -0.013341346755623817, 0.09438853710889816, -0.038154423236846924, -0.07660004496574402, -0.058837782591581345, -0.03179098293185234, -0.02117736078798771, -0.08645908534526825, -0.04535078629851341, -0.012763856910169125, 0.05929436534643173, 0.10186494141817093], [-0.013229086995124817, 0.04503195732831955, -0.09295654296875, 0.06960199773311615, 0.03548584505915642, 0.07793854922056198, -0.006231572944670916, 0.06951626390218735, -0.08151411265134811, -0.020186806097626686, -0.02656470239162445, -0.07215843349695206, -0.05938467010855675, -0.06921853125095367, 0.04049597680568695, 0.007355088368058205, 0.004042832180857658, -0.01828170008957386, 0.10676731914281845, 0.013748692348599434, 0.12337958067655563, 0.09587221592664719, -0.08281531184911728, -0.043648798018693924, 0.08853162825107574, 0.1354123204946518, -0.0918484628200531, -0.003960308153182268, -0.09103386104106903, 0.10250303894281387, 0.11300719529390335, 0.09816072136163712, 0.05429062247276306, -0.055081769824028015, 0.15299364924430847, -0.036635059863328934, 0.012451083399355412, -0.0186227448284626, -0.10252248495817184, -0.07854050397872925, 0.013477497734129429, 0.0237406175583601, -0.08699622750282288, -0.01107726525515318, 0.02251262776553631, -0.08337001502513885, 0.0929337814450264, -0.09818145632743835, -0.034600045531988144, -0.0955362468957901, -0.12096259742975235, -0.026545634493231773, 0.06563370674848557, 0.16631175577640533, -0.01606287993490696, 0.11982718110084534, -0.06662635505199432, 0.08271101117134094, 0.06785080581903458, -0.07281028479337692, -0.12459422647953033, 0.01947772316634655, 0.038240697234869, -0.06823915988206863, -0.09861216694116592, 0.05918016657233238, -0.019460223615169525, 0.010276349261403084, -0.09657877683639526, 0.0930728167295456, -0.05563237518072128, 0.05118785798549652, 0.007925593294203281], [0.0038138702511787415, 0.05746840685606003, -0.03117850422859192, 0.005216166842728853, 0.09064711630344391, -0.08825076371431351, 0.0900215283036232, -0.04378049448132515, -0.014160999096930027, 0.07038797438144684, -0.002477293601259589, -0.11566311120986938, 0.11984813958406448, -0.10283149033784866, 0.08171914517879486, -0.016141843050718307, 0.10803209245204926, 0.051006779074668884, -0.013803577050566673, 0.04985152930021286, 0.003931693732738495, -0.05387033894658089, 0.05201021581888199, 0.07271848618984222, 0.005803072825074196, 0.09494833648204803, 0.01278684101998806, -0.063849538564682, -0.06220908835530281, 0.06116754189133644, -0.041734479367733, 0.09257681667804718, -0.15590894222259521, -0.02598564699292183, -0.07893816381692886, 0.021714098751544952, 0.1395968496799469, 0.047272682189941406, -0.06897889822721481, -0.11381684988737106, -0.03853967413306236, -0.06989792734384537, 0.10240877419710159, -0.07156652957201004, 0.03003298118710518, 0.0812009871006012, 0.046760015189647675, -0.10382115095853806, -0.055311013013124466, -0.03928259760141373, 0.03333602473139763, -0.026562251150608063, -0.004403215833008289, 0.09559223055839539, -0.0017089395551010966, 0.06342116743326187, -0.022878779098391533, 0.07306986302137375, 0.033693090081214905, -0.03101031482219696, 0.009363014250993729, -0.09108839929103851, -0.016499025747179985, 0.07172353565692902, -0.12346848100423813, -0.10359801352024078, 0.057584621012210846, 0.02149484120309353, 0.012172585353255272, 0.041936539113521576, -0.052963901311159134, 0.10532815754413605, -0.01926416903734207], [-0.04261583834886551, 0.061609260737895966, -0.09741894900798798, -0.0010662430431693792, -0.026830509305000305, -0.034284964203834534, 0.0630335733294487, -0.12939967215061188, -0.05734977498650551, -0.06509710848331451, 0.03638770431280136, 0.05009160190820694, -0.08554720878601074, -0.015981480479240417, -0.0012407515896484256, 0.10569560527801514, 0.06727241724729538, -0.06902360171079636, 0.07131993770599365, -0.0766405537724495, -0.019406763836741447, -0.02467401698231697, 0.08568111062049866, -0.011652425862848759, -0.1262548714876175, -0.037819571793079376, 0.09605050832033157, -0.037539076060056686, -0.04998211935162544, -0.10268069803714752, -0.08019611239433289, -0.07071765512228012, -0.017824117094278336, 0.009509740397334099, 0.09808709472417831, 0.06154054403305054, -0.01963050104677677, 0.0727016031742096, 0.046152450144290924, -0.13229438662528992, 0.051995404064655304, -0.10177614539861679, 0.08247110992670059, -0.07148656994104385, 0.013201290741562843, -0.024365723133087158, 0.03112529031932354, 0.005589190870523453, -0.09252706915140152, 0.0509018748998642, 0.046388089656829834, -0.11656744033098221, -0.0851794183254242, -0.09322945028543472, -0.06744619458913803, -0.030774421989917755, 0.013340232893824577, -0.04936198517680168, -0.06572327762842178, 0.06518900394439697, -0.021506933495402336, -0.05423152446746826, -0.051637664437294006, -0.08867812901735306, -0.08367814868688583, -0.14012618362903595, -0.010645734146237373, -0.08749988675117493, 0.05958936735987663, 0.08421177417039871, -0.08696863055229187, -0.06301460415124893, -0.0967167392373085], [0.03123483806848526, 0.022646881639957428, -0.0604105107486248, 0.06619498878717422, 0.051134489476680756, -0.09582478553056717, -0.020866375416517258, -0.06558767706155777, -0.029074588790535927, 0.05537905544042587, -0.029840053990483284, -0.058653298765420914, 0.043082527816295624, -0.0759393721818924, -0.030818602070212364, 0.058729782700538635, 0.09593410044908524, 0.11862608790397644, -0.021730000153183937, 0.04429386183619499, -0.08403142541646957, -0.016445521265268326, -0.03676701709628105, 0.06939416378736496, -0.07324384897947311, -0.02305111102759838, 0.06936930865049362, 0.11357416212558746, -0.022387070581316948, 0.13838975131511688, -0.10198070108890533, -0.05265623703598976, 0.04611138626933098, 0.03183780983090401, 0.038158029317855835, -0.022706273943185806, 0.07674189656972885, -0.19716866314411163, -0.0323752835392952, -0.02145354636013508, -0.10366344451904297, -0.08125283569097519, -0.10313283652067184, 0.0927015170454979, 0.03650136664509773, -0.01566612534224987, -0.016274893656373024, -0.08519749343395233, -0.10255030542612076, -0.14589819312095642, -0.11104157567024231, 0.06615927070379257, -0.036926064640283585, -0.0048863207921385765, -0.10549477487802505, -0.007740655913949013, -0.008355808444321156, -0.06317241489887238, 0.05744413658976555, 0.11184431612491608, -0.06267822533845901, 0.0016915968153625727, 0.008295047096908092, -0.014225218445062637, 0.09208520501852036, 0.009836787357926369, 0.09302344173192978, 0.0006129940738901496, -0.11967280507087708, -0.13248978555202484, -0.08309875428676605, 0.037960439920425415, -0.1042812168598175], [-0.0981014296412468, -0.07501952350139618, -0.11571528017520905, -0.08219293504953384, 0.1778518110513687, 0.05172897130250931, 0.0772695392370224, -0.03370063006877899, -0.0621521957218647, -0.03470485284924507, -0.020441627129912376, -0.10810642689466476, -0.038973595947027206, -0.10079710185527802, 0.005431083496659994, 0.11207408457994461, 0.07348836958408356, 0.0668979287147522, -0.044977251440286636, 0.016141362488269806, -0.0892350822687149, -0.028001151978969574, -0.04330422729253769, -0.0525553897023201, -0.13753807544708252, -0.07573266327381134, -0.017855843529105186, -0.008359859697520733, -0.032911524176597595, 0.057292353361845016, 0.08390665054321289, -0.06916103512048721, 0.011365407146513462, 0.10580015182495117, -0.17839646339416504, -0.05757343769073486, 0.09942299127578735, -0.045477334409952164, -0.0009395575616508722, -0.04448113963007927, 0.10730288922786713, 0.12180226296186447, -0.03207389637827873, -0.012271029874682426, -0.08489607274532318, -0.028879307210445404, 0.03255839645862579, -0.10327254235744476, 0.012952533550560474, 0.018350575119256973, -0.04521568492054939, -0.02194058895111084, 0.026009298861026764, -0.021956171840429306, 0.022373272106051445, -0.08021575212478638, 0.01595253311097622, -0.06576810777187347, -0.018190667033195496, -0.0318906344473362, 0.0722573772072792, -0.07099250704050064, -0.09899049252271652, -0.09273219853639603, -0.03893515467643738, -0.008263792842626572, 0.09283541142940521, -0.1281220018863678, -0.06771144270896912, -0.11655218154191971, -0.04329228401184082, 0.007132240571081638, -0.05214505270123482], [0.001237131655216217, 0.039552755653858185, -0.0199132040143013, 0.03274332359433174, 0.02418394200503826, 0.0606311559677124, -0.04020928964018822, 0.10772176086902618, 0.06267943978309631, 0.039524730294942856, 0.09005950391292572, -0.10234230756759644, -0.07574538141489029, 0.11519651859998703, 0.022447984665632248, 0.10298396646976471, -0.046465471386909485, -0.02144295535981655, 0.06733939051628113, 0.06513304263353348, 0.05625658109784126, -0.023785125464200974, -0.01566774770617485, -0.013847889378666878, 0.022147880867123604, -0.09209765493869781, -0.05102453753352165, 0.06748703122138977, 0.002638607518747449, 0.042161792516708374, -0.058736614882946014, -0.062179528176784515, -0.07752451300621033, -0.0450766459107399, -0.062268875539302826, 0.017936628311872482, 0.00687446678057313, -0.15609025955200195, 0.06762491166591644, 0.006152310874313116, 0.03593182936310768, -0.04364115372300148, 0.050358522683382034, -0.0685061514377594, 0.04887930303812027, -0.07699431478977203, 0.047064121812582016, -0.06257668137550354, 0.05975502356886864, 